~o
<STREAMINFO> 1 39
<VECSIZE> 39<NULLD><MFCC_E_D_A_Z><DIAGC>
~s "silst"
<NUMMIXES> 9
<MIXTURE> 1 9.384321e-02
<MEAN> 39
 -5.606567e+00 4.969276e-01 4.017569e+00 5.886608e+00 5.089491e+00 8.109307e+00 6.487368e+00 9.308770e+00 4.439973e+00 5.304585e+00 2.811366e+00 -3.539614e-02 1.757077e-01 -2.041869e+00 -1.003014e+00 -5.674918e-01 9.747306e-01 1.310222e+00 1.952099e+00 2.391616e+00 2.610259e+00 1.931479e+00 1.549539e+00 6.644196e-01 2.045771e-01 -8.831749e-02 6.968451e-01 4.951891e-01 -1.609130e-02 -3.952905e-01 -5.155714e-01 -8.280187e-01 -8.780567e-01 -9.876652e-01 -6.190380e-01 -6.373762e-01 -2.326816e-01 -1.145604e-01 4.426425e-02
<VARIANCE> 39
 1.862160e+01 3.181137e+01 1.551284e+01 2.742309e+01 2.261220e+01 2.752651e+01 2.467444e+01 2.630582e+01 3.085150e+01 2.690203e+01 3.520607e+01 2.846554e+01 2.125271e-02 1.326882e+00 1.883348e+00 1.385340e+00 1.642822e+00 2.056316e+00 2.627791e+00 2.689532e+00 2.901971e+00 2.638856e+00 2.792886e+00 2.631542e+00 2.763451e+00 2.370902e-03 1.871263e-01 2.958820e-01 2.865565e-01 4.143898e-01 3.798536e-01 4.376183e-01 4.278281e-01 4.557654e-01 5.974880e-01 5.129736e-01 4.669791e-01 5.065934e-01 3.710065e-04
<GCONST> 9.124357e+01
<MIXTURE> 2 1.470582e-01
<MEAN> 39
 -3.113793e+00 -2.940138e+00 3.647779e+00 5.139309e+00 6.051672e+00 6.307740e+00 5.374379e+00 4.696189e+00 3.852924e+00 3.432373e+00 2.467839e+00 1.521271e+00 1.437380e-01 5.764767e-01 1.014482e+00 -1.132576e-01 -3.129598e-01 -6.119132e-01 -6.800624e-01 -5.455198e-01 -4.738104e-01 -1.645439e-01 1.246132e-01 -9.888156e-02 3.620845e-02 6.906701e-02 4.911264e-01 2.545883e-01 -2.763757e-01 -4.344373e-01 -5.320742e-01 -4.657919e-01 -4.726849e-01 -3.400929e-01 -3.290669e-01 -1.511447e-01 -8.440857e-02 1.814453e-03 3.509264e-02
<VARIANCE> 39
 1.995359e+01 5.238858e+01 4.591607e+01 3.806892e+01 3.722075e+01 5.126466e+01 4.182485e+01 5.283125e+01 4.421996e+01 4.572527e+01 5.350334e+01 3.425436e+01 3.945080e-02 2.943027e+00 3.957526e+00 3.796286e+00 4.066243e+00 4.071074e+00 4.187038e+00 4.622595e+00 4.391779e+00 4.164588e+00 3.700834e+00 3.909039e+00 2.900904e+00 8.329671e-03 4.826979e-01 7.371203e-01 6.613487e-01 6.489682e-01 7.411435e-01 8.251647e-01 8.459215e-01 8.594219e-01 8.675988e-01 8.964265e-01 9.566058e-01 6.695628e-01 1.125440e-03
<GCONST> 1.144804e+02
<MIXTURE> 3 1.247680e-01
<MEAN> 39
 -2.086362e+00 -1.247721e-01 2.538158e+00 2.836961e+00 3.158179e+00 4.164248e+00 1.798765e+00 3.323533e+00 3.513552e+00 1.524020e+00 1.902147e+00 9.759307e-01 -3.907960e-02 -4.107822e-02 2.205840e-01 1.357600e-01 9.946886e-02 -2.835360e-02 9.532817e-02 5.638927e-02 1.032028e-01 -2.262072e-02 -1.095074e-02 -2.720383e-02 -5.773235e-02 -5.783001e-03 5.648833e-02 3.011389e-02 2.543835e-02 4.233060e-02 -1.209102e-03 8.579903e-04 -1.515332e-02 -1.113947e-02 -1.664999e-02 2.324716e-02 1.508668e-02 2.786384e-02 1.142108e-02
<VARIANCE> 39
 8.960279e+00 3.869730e+01 1.800118e+01 2.292331e+01 2.188974e+01 2.313928e+01 2.386266e+01 3.023535e+01 1.965869e+01 2.385680e+01 2.345624e+01 1.717947e+01 1.087522e-02 3.643731e-01 7.664039e-01 7.648882e-01 1.034451e+00 1.248679e+00 1.448070e+00 1.445657e+00 1.728649e+00 1.570510e+00 1.732716e+00 1.546503e+00 1.384219e+00 5.096980e-04 1.119827e-01 1.765065e-01 1.593132e-01 1.973771e-01 2.700608e-01 3.103589e-01 3.096985e-01 3.563891e-01 3.580256e-01 3.488746e-01 3.033540e-01 2.790945e-01 2.976233e-04
<GCONST> 7.342910e+01
<MIXTURE> 4 3.759963e-02
<MEAN> 39
 8.605187e-01 2.646909e+00 6.102258e+00 4.774334e+00 2.624988e+00 1.647873e+00 -1.279148e+00 -1.987082e+00 2.130177e-01 -1.363454e+00 -9.475617e-01 1.161829e+00 3.888586e-01 2.889045e+00 2.424140e+00 9.511066e-02 -1.241701e+00 -1.484199e+00 -1.824112e+00 -2.090793e+00 -1.642119e+00 -1.579081e+00 -9.011225e-01 -7.946118e-01 -8.470882e-01 2.012044e-01 -2.654349e-01 -2.563733e-01 -5.856412e-01 -6.620192e-01 -1.907938e-01 -6.388679e-03 1.401773e-01 4.188948e-01 3.215318e-01 3.298724e-01 2.959099e-01 8.299354e-02 -7.115053e-03
<VARIANCE> 39
 2.469756e+01 3.293354e+01 3.092554e+01 1.992735e+01 2.973877e+01 3.116968e+01 3.026119e+01 3.344542e+01 2.751390e+01 2.831542e+01 2.976889e+01 2.763979e+01 3.164135e-02 2.331762e+00 2.516974e+00 4.271318e+00 3.432200e+00 3.110563e+00 3.223078e+00 3.683440e+00 3.765556e+00 3.770505e+00 3.135873e+00 3.711605e+00 3.024352e+00 2.032374e-03 3.211564e-01 2.028858e-01 3.199880e-01 3.960952e-01 3.677988e-01 4.541501e-01 4.802656e-01 4.702500e-01 4.797356e-01 4.720704e-01 4.476322e-01 4.764417e-01 3.456809e-04
<GCONST> 9.747639e+01
<MIXTURE> 5 1.247474e-01
<MEAN> 39
 -2.086269e+00 -1.246380e-01 2.538016e+00 2.836384e+00 3.157665e+00 4.164241e+00 1.798934e+00 3.323513e+00 3.513456e+00 1.524063e+00 1.901629e+00 9.755854e-01 -3.906417e-02 -4.120273e-02 2.205313e-01 1.357630e-01 9.962995e-02 -2.825290e-02 9.539779e-02 5.637684e-02 1.032251e-01 -2.262457e-02 -1.093889e-02 -2.720152e-02 -5.774223e-02 -5.781186e-03 5.650301e-02 3.013209e-02 2.542950e-02 4.237816e-02 -1.186447e-03 8.270285e-04 -1.519644e-02 -1.114684e-02 -1.666658e-02 2.322900e-02 1.513835e-02 2.792436e-02 1.142662e-02
<VARIANCE> 39
 8.960365e+00 3.869595e+01 1.799867e+01 2.291957e+01 2.188570e+01 2.313573e+01 2.386204e+01 3.023369e+01 1.965830e+01 2.385421e+01 2.345529e+01 1.717774e+01 1.087668e-02 3.645654e-01 7.665918e-01 7.650242e-01 1.034613e+00 1.248652e+00 1.448092e+00 1.445747e+00 1.728737e+00 1.570593e+00 1.732676e+00 1.546464e+00 1.384129e+00 5.100889e-04 1.120416e-01 1.765743e-01 1.593378e-01 1.973961e-01 2.700582e-01 3.103625e-01 3.097087e-01 3.563958e-01 3.580330e-01 3.488604e-01 3.033480e-01 2.790709e-01 2.977957e-04
<GCONST> 7.343181e+01
<MIXTURE> 6 1.828116e-01
<MEAN> 39
 -3.049791e+00 -3.413118e+00 -1.302829e+00 6.858563e-01 7.897643e-01 1.613429e+00 1.759873e+00 2.869576e+00 3.165473e+00 2.262514e+00 2.581485e+00 1.854971e+00 1.670523e-01 -1.658248e+00 -8.045182e-01 -1.064140e+00 -2.846975e-01 -3.713891e-01 -1.099287e-01 6.619836e-02 2.078385e-01 2.820961e-01 2.734717e-01 3.804137e-01 1.959384e-01 -6.901934e-02 3.838401e-01 6.397526e-01 4.747052e-01 3.510873e-01 2.374600e-01 1.323313e-01 -5.428341e-02 -2.273343e-01 -1.545745e-01 -1.899729e-01 -3.006371e-01 -1.715944e-01 3.658050e-02
<VARIANCE> 39
 1.869874e+01 5.311810e+01 2.603583e+01 3.100110e+01 3.599784e+01 3.079406e+01 3.988206e+01 3.993994e+01 3.963533e+01 3.520376e+01 3.441427e+01 2.711219e+01 2.447247e-02 1.746141e+00 2.417968e+00 2.392555e+00 2.361754e+00 2.164362e+00 2.482717e+00 2.656281e+00 2.701164e+00 3.070690e+00 2.700539e+00 2.613486e+00 2.229177e+00 2.935873e-03 2.315938e-01 4.001584e-01 3.087317e-01 3.691091e-01 4.692338e-01 4.697140e-01 4.938630e-01 5.506521e-01 5.782676e-01 5.540621e-01 5.707519e-01 4.951684e-01 4.756322e-04
<GCONST> 9.747824e+01
<MIXTURE> 7 3.832578e-02
<MEAN> 39
 1.265437e+00 2.729743e+00 6.033349e+00 4.764727e+00 2.738090e+00 1.523819e+00 -1.087941e+00 -2.384652e+00 4.008126e-02 -1.913395e+00 -1.757757e+00 4.010414e-01 4.042006e-01 2.918009e+00 2.470207e+00 2.169892e-01 -1.152156e+00 -1.379311e+00 -1.669538e+00 -1.961947e+00 -1.493759e+00 -1.472034e+00 -8.250058e-01 -7.705487e-01 -8.580564e-01 1.986187e-01 -3.005561e-01 -2.773578e-01 -5.911220e-01 -6.577317e-01 -2.146259e-01 -1.556269e-02 1.013863e-01 4.074053e-01 3.441703e-01 3.872449e-01 3.848852e-01 1.895635e-01 -8.906042e-03
<VARIANCE> 39
 2.529746e+01 3.217294e+01 2.974290e+01 1.998217e+01 2.994040e+01 3.067807e+01 3.013783e+01 3.381414e+01 2.754927e+01 2.795391e+01 2.829761e+01 2.547828e+01 3.106544e-02 2.349272e+00 2.347873e+00 4.374974e+00 3.557372e+00 3.172398e+00 3.190807e+00 3.743170e+00 3.710927e+00 3.810932e+00 3.192393e+00 3.726777e+00 2.967529e+00 2.021714e-03 3.389715e-01 2.008219e-01 3.126774e-01 3.888009e-01 3.658816e-01 4.547873e-01 4.764457e-01 4.600230e-01 4.763634e-01 4.622343e-01 4.322570e-01 4.429191e-01 3.400359e-04
<GCONST> 9.710945e+01
<MIXTURE> 8 7.940836e-02
<MEAN> 39
 4.019469e+00 5.365404e+00 2.350746e+00 -1.406464e+00 -1.543480e+00 1.429209e-01 -6.628810e-01 4.351774e+00 5.915018e+00 7.196903e+00 6.823276e+00 5.109091e+00 4.826234e-01 2.296173e+00 1.542954e+00 -2.254757e+00 -2.712621e+00 -2.560963e+00 -2.913019e+00 -1.913975e+00 -1.836258e+00 -1.148327e+00 -3.585197e-01 -8.715196e-03 6.086298e-01 1.856276e-01 -5.656753e-01 -3.714685e-01 2.459106e-03 2.677910e-01 4.889723e-01 3.771397e-01 3.034060e-01 4.486428e-03 -4.435095e-01 -6.910983e-01 -7.037655e-01 -5.120222e-01 -1.651832e-02
<VARIANCE> 39
 3.300445e+01 5.143946e+01 5.408044e+01 4.581604e+01 3.339146e+01 3.965524e+01 4.898013e+01 4.063943e+01 4.818390e+01 3.531391e+01 4.102984e+01 3.878522e+01 3.376536e-02 3.462633e+00 4.765864e+00 4.597894e+00 3.324502e+00 3.852937e+00 4.491843e+00 4.604848e+00 3.851081e+00 4.142001e+00 4.406900e+00 4.799545e+00 4.726471e+00 4.095775e-03 3.454988e-01 3.661847e-01 6.944212e-01 7.108353e-01 4.889932e-01 5.721725e-01 7.886019e-01 6.908300e-01 7.576222e-01 6.129954e-01 5.766450e-01 6.842111e-01 4.507439e-04
<GCONST> 1.108665e+02
<MIXTURE> 9 1.714306e-01
<MEAN> 39
 -3.988352e+00 -2.125846e+00 2.757180e+00 5.593589e+00 2.485160e+00 5.339866e+00 2.343863e+00 2.466810e+00 2.188667e+00 3.192992e+00 3.449435e+00 2.469285e+00 2.846910e-01 -3.231115e+00 -1.100522e+00 -2.060652e+00 5.258694e-01 2.343555e-01 1.313212e+00 1.600385e+00 2.297854e+00 1.444330e+00 1.292817e+00 9.368954e-01 2.301007e-01 -8.668873e-02 2.638557e-01 7.249794e-01 -1.568710e-01 -4.051635e-01 -2.517215e-01 -4.278574e-01 -2.080586e-01 -1.288295e-01 -3.050815e-02 -2.481173e-01 -2.873944e-01 -2.153638e-01 3.856380e-02
<VARIANCE> 39
 2.163951e+01 3.923893e+01 2.229652e+01 2.490642e+01 2.220005e+01 2.712961e+01 3.045613e+01 2.985366e+01 2.877602e+01 3.261768e+01 2.915830e+01 2.421255e+01 2.262097e-02 2.027087e+00 3.195102e+00 3.387816e+00 3.021713e+00 2.856159e+00 3.581831e+00 4.156348e+00 4.126733e+00 3.870305e+00 3.495131e+00 3.923217e+00 3.854042e+00 3.130948e-03 3.966004e-01 5.574747e-01 3.779646e-01 5.698139e-01 4.619241e-01 4.829958e-01 5.246645e-01 5.409135e-01 6.085600e-01 6.822772e-01 5.650052e-01 5.683222e-01 3.263782e-04
<GCONST> 1.006389e+02
~h "#i"
<BEGINHMM>
<NUMSTATES> 15
<STATE> 2
<NUMMIXES> 9
<MIXTURE> 1 2.151118e-02
<MEAN> 39
 -5.147449e+00 1.076421e+01 -4.621270e+00 -2.145763e+00 -5.339973e+00 -3.251466e+00 1.054583e+00 2.179504e+00 9.656803e+00 1.050664e+01 1.017755e+01 7.575152e+00 9.064597e-01 -5.322122e-01 -7.733260e-02 -4.983490e-02 -2.399236e-01 -4.290272e-01 2.149954e-01 -3.762566e-02 3.497877e-01 2.385756e+00 3.178409e+00 1.687539e+00 9.798614e-01 2.678921e-02 4.379312e-01 -1.250055e-01 -1.802225e-02 -1.163572e-01 -1.501989e-01 7.188042e-02 3.848080e-01 2.774873e-01 -2.708588e-01 -7.484189e-01 -1.040107e+00 -9.590499e-01 -1.237318e-02
<VARIANCE> 39
 1.612145e+01 3.186450e+01 8.403316e+00 2.116664e+01 1.295916e+01 9.916924e+00 2.637793e+01 2.492257e+01 7.029393e+01 6.876123e+01 2.731241e+01 8.747247e+01 1.267734e-03 6.528751e-01 6.848992e-01 9.521285e-01 1.274502e+00 1.179786e+00 1.219810e+00 1.818859e+00 8.319991e-01 2.365360e+00 1.782352e+00 4.995154e+00 2.756925e+00 1.956187e-04 1.436549e-01 1.295194e-01 1.703806e-01 3.088754e-01 1.866700e-01 2.890906e-01 3.906262e-01 2.024321e-01 5.981075e-01 5.557146e-01 6.129302e-01 4.582955e-01 7.896006e-05
<GCONST> 7.552139e+01
<MIXTURE> 2 1.479314e-01
<MEAN> 39
 1.518273e+00 1.242371e+01 -2.019204e+00 -1.425356e+00 -4.366205e+00 -3.964258e+00 -2.436768e+00 1.128106e+00 -1.167714e+00 3.415209e-01 -5.918617e-01 4.048436e-01 7.145964e-01 4.244769e-02 9.246755e-01 -1.314308e-01 4.363193e-01 -6.845967e-01 -9.449091e-02 -7.309776e-01 -2.350383e-01 -6.062143e-01 -1.146455e-01 -4.116848e-01 2.493246e-01 1.313908e-02 -1.087819e-01 -2.262963e-01 -2.781493e-03 -2.518422e-01 7.699334e-03 -1.613311e-01 -7.807373e-02 -9.112675e-02 -3.299874e-02 -1.662577e-01 -1.042507e-01 -5.930493e-02 7.592052e-03
<VARIANCE> 39
 1.193535e+01 2.513902e+01 2.425400e+01 2.626708e+01 2.175860e+01 1.977077e+01 5.405600e+01 3.015300e+01 3.288475e+01 3.842781e+01 5.206148e+01 5.327176e+01 1.426845e-02 5.658290e-01 1.150517e+00 9.986517e-01 1.473402e+00 1.308558e+00 2.053277e+00 2.081192e+00 2.042772e+00 2.154219e+00 2.125244e+00 2.879378e+00 2.765218e+00 5.968251e-04 9.032533e-02 2.087178e-01 2.129221e-01 3.046508e-01 2.795463e-01 3.364995e-01 4.147610e-01 3.575907e-01 4.102531e-01 4.693710e-01 4.747175e-01 5.230682e-01 6.976497e-05
<GCONST> 8.309367e+01
<MIXTURE> 3 1.475843e-01
<MEAN> 39
 1.503977e+00 1.240207e+01 -2.000318e+00 -1.418628e+00 -4.414474e+00 -3.972652e+00 -2.512343e+00 1.081339e+00 -1.179562e+00 2.806275e-01 -5.843973e-01 3.229655e-01 7.145249e-01 4.151487e-02 9.302522e-01 -1.271948e-01 4.433460e-01 -6.851209e-01 -8.719240e-02 -7.353396e-01 -2.301646e-01 -6.127925e-01 -1.166792e-01 -4.091681e-01 2.448684e-01 1.312569e-02 -1.075715e-01 -2.249495e-01 -5.106264e-04 -2.533361e-01 1.235970e-02 -1.582292e-01 -7.108089e-02 -8.553728e-02 -2.803175e-02 -1.602459e-01 -1.012271e-01 -5.087820e-02 7.568523e-03
<VARIANCE> 39
 1.195993e+01 2.523974e+01 2.429684e+01 2.637436e+01 2.192260e+01 1.986851e+01 5.437011e+01 3.029621e+01 3.286562e+01 3.863371e+01 5.265092e+01 5.337809e+01 1.429359e-02 5.693561e-01 1.161433e+00 1.009822e+00 1.479704e+00 1.314120e+00 2.061654e+00 2.088052e+00 2.061977e+00 2.159553e+00 2.130296e+00 2.888666e+00 2.788080e+00 5.973518e-04 9.103789e-02 2.095903e-01 2.146533e-01 3.067260e-01 2.805761e-01 3.377917e-01 4.166713e-01 3.602632e-01 4.113635e-01 4.722196e-01 4.775378e-01 5.250158e-01 6.993132e-05
<GCONST> 8.328476e+01
<MIXTURE> 4 7.087386e-02
<MEAN> 39
 8.436438e-01 1.169736e+01 -2.179341e+00 -2.780565e+00 -6.269523e+00 -4.630766e+00 -3.173348e+00 1.627392e+00 -1.526471e+00 -1.822112e-01 -4.625076e-01 4.349255e-01 7.809107e-01 -9.373833e-01 7.388280e-01 -5.501872e-01 -5.594719e-01 -5.515327e-01 -6.337502e-01 -1.086130e+00 -7.424186e-01 -1.092570e+00 -1.111087e+00 -6.136489e-01 -6.208341e-01 6.497539e-02 -3.011993e-01 -9.276993e-01 2.839951e-01 4.930333e-01 6.261295e-01 5.721092e-01 3.741155e-01 9.758821e-02 3.531653e-01 2.134423e-01 2.224312e-01 1.942415e-01 -3.596392e-02
<VARIANCE> 39
 1.252809e+01 4.912908e+01 1.684852e+01 1.688763e+01 2.114724e+01 2.901266e+01 4.350293e+01 2.687731e+01 2.244148e+01 2.909668e+01 3.061551e+01 4.248659e+01 1.167762e-02 7.473263e-01 2.076118e+00 1.012607e+00 1.588782e+00 1.672799e+00 1.804404e+00 1.895173e+00 2.955888e+00 2.374298e+00 1.865821e+00 4.391385e+00 3.421799e+00 7.489530e-04 1.604297e-01 4.117776e-01 2.564857e-01 2.527085e-01 3.037697e-01 4.134853e-01 5.132387e-01 4.239271e-01 2.946128e-01 3.292657e-01 4.649947e-01 5.757701e-01 4.251538e-04
<GCONST> 8.671293e+01
<MIXTURE> 5 1.487049e-01
<MEAN> 39
 1.555280e+00 1.245238e+01 -2.048664e+00 -1.452728e+00 -4.294415e+00 -3.945540e+00 -2.359006e+00 1.192640e+00 -1.162458e+00 4.345804e-01 -5.944096e-01 5.220279e-01 7.150757e-01 4.061307e-02 9.150685e-01 -1.370116e-01 4.201413e-01 -6.784935e-01 -1.113578e-01 -7.182916e-01 -2.391991e-01 -5.879023e-01 -1.113340e-01 -4.069144e-01 2.529667e-01 1.322776e-02 -1.122563e-01 -2.248894e-01 -8.682806e-03 -2.454765e-01 2.519733e-04 -1.665567e-01 -8.810233e-02 -9.975385e-02 -4.070044e-02 -1.762395e-01 -1.084921e-01 -7.117018e-02 7.586361e-03
<VARIANCE> 39
 1.189661e+01 2.501756e+01 2.421285e+01 2.601314e+01 2.152633e+01 1.958021e+01 5.356569e+01 2.995331e+01 3.286652e+01 3.804523e+01 5.107976e+01 5.319316e+01 1.425145e-02 5.589066e-01 1.129484e+00 9.828745e-01 1.454381e+00 1.296351e+00 2.024012e+00 2.067884e+00 2.008277e+00 2.138352e+00 2.109279e+00 2.844924e+00 2.724540e+00 5.929862e-04 8.893283e-02 2.051802e-01 2.086697e-01 2.996038e-01 2.770543e-01 3.324440e-01 4.108969e-01 3.516947e-01 4.070685e-01 4.625236e-01 4.696331e-01 5.201572e-01 6.905534e-05
<GCONST> 8.268501e+01
<MIXTURE> 6 7.099278e-02
<MEAN> 39
 8.623394e-01 1.172401e+01 -2.183277e+00 -2.783232e+00 -6.279233e+00 -4.655798e+00 -3.200131e+00 1.621865e+00 -1.538709e+00 -1.942274e-01 -4.579946e-01 3.959835e-01 7.800279e-01 -9.320794e-01 7.545236e-01 -5.506971e-01 -5.684760e-01 -5.586357e-01 -6.367111e-01 -1.087593e+00 -7.346534e-01 -1.089384e+00 -1.108678e+00 -6.099604e-01 -6.269802e-01 6.532558e-02 -3.042506e-01 -9.298561e-01 2.833665e-01 4.926291e-01 6.261144e-01 5.737335e-01 3.760791e-01 9.798776e-02 3.533947e-01 2.128679e-01 2.222456e-01 1.981448e-01 -3.599840e-02
<VARIANCE> 39
 1.249543e+01 4.912337e+01 1.687349e+01 1.696286e+01 2.116468e+01 2.913610e+01 4.361639e+01 2.691346e+01 2.254968e+01 2.908797e+01 3.062690e+01 4.248728e+01 1.178547e-02 7.505441e-01 2.101424e+00 1.015175e+00 1.597855e+00 1.682138e+00 1.812436e+00 1.905570e+00 2.967028e+00 2.378433e+00 1.868766e+00 4.402205e+00 3.422350e+00 7.679126e-04 1.606015e-01 4.131927e-01 2.562060e-01 2.533199e-01 3.033015e-01 4.134879e-01 5.139701e-01 4.244577e-01 2.954491e-01 3.292525e-01 4.656567e-01 5.774522e-01 4.270892e-04
<GCONST> 8.683269e+01
<MIXTURE> 7 7.391692e-02
<MEAN> 39
 2.028013e+00 1.252535e+01 -1.489200e+00 -1.210961e+00 -4.637783e+00 -3.052925e+00 1.211184e+00 3.464800e+00 7.791231e-01 3.351358e+00 -1.214931e+00 4.177054e+00 7.334509e-01 -6.624973e-01 7.351653e-01 -7.388939e-01 -5.885464e-01 -7.610279e-01 -7.408787e-01 -1.106055e+00 -9.006487e-01 -1.514407e+00 -1.501824e+00 -1.232411e+00 -2.450982e-01 6.849165e-02 -4.183015e-01 -9.548028e-01 9.332891e-02 1.640846e-01 3.075406e-01 1.932126e-01 -9.103084e-02 -1.815828e-01 5.177631e-02 -1.591672e-01 2.283465e-01 -1.854327e-01 -2.064813e-02
<VARIANCE> 39
 1.198055e+01 3.933218e+01 1.542514e+01 1.567605e+01 1.499940e+01 2.125335e+01 2.908532e+01 3.128493e+01 2.207907e+01 2.360341e+01 2.497152e+01 3.858603e+01 1.160392e-02 9.500115e-01 2.148908e+00 1.093236e+00 1.022492e+00 1.354700e+00 1.731873e+00 1.878360e+00 1.971590e+00 1.946311e+00 1.944426e+00 3.036886e+00 2.124683e+00 8.393301e-04 1.231133e-01 3.576232e-01 2.510752e-01 2.698952e-01 2.980632e-01 3.967333e-01 3.936936e-01 4.960305e-01 3.420682e-01 3.449754e-01 5.118657e-01 5.706524e-01 4.125033e-04
<GCONST> 8.292448e+01
<MIXTURE> 8 2.059069e-01
<MEAN> 39
 -1.727773e+00 1.150525e+01 7.881296e-01 -6.558975e+00 -2.313027e+00 -8.650099e+00 -3.562255e+00 3.263547e-01 1.160926e+00 -1.629247e+00 2.170578e+00 -3.748041e-01 8.122851e-01 -3.997934e-01 2.228910e+00 -1.201207e+00 1.983641e+00 -8.091388e-01 -6.151959e-01 -9.627388e-01 -1.054175e+00 -8.821686e-01 -1.369035e+00 6.924303e-01 -3.976388e-01 -1.824448e-03 2.800686e-01 -7.742026e-01 1.538513e-01 3.046609e-01 -5.683476e-01 8.493333e-01 1.549812e-01 8.138058e-02 -2.919086e-01 1.910730e-01 -3.764436e-01 -1.462590e-01 2.652512e-03
<VARIANCE> 39
 8.598442e+00 2.591130e+01 2.053770e+01 2.725944e+01 1.961506e+01 2.790464e+01 4.396546e+01 2.681657e+01 2.917398e+01 3.157859e+01 3.191963e+01 2.734904e+01 7.112936e-03 5.262010e-01 1.405931e+00 1.018713e+00 1.366798e+00 2.359993e+00 3.613595e+00 2.315939e+00 2.195409e+00 3.097285e+00 3.790202e+00 2.885875e+00 2.879504e+00 2.541022e-04 7.798247e-02 2.113388e-01 2.276659e-01 5.184500e-01 3.971735e-01 3.828323e-01 4.110553e-01 4.600719e-01 4.460630e-01 4.943646e-01 4.750487e-01 5.069178e-01 2.457320e-05
<GCONST> 8.220158e+01
<MIXTURE> 9 1.125760e-01
<MEAN> 39
 -6.775292e-02 8.393681e+00 -5.964791e+00 -5.094545e+00 -6.434837e+00 -5.166898e+00 2.394888e-01 7.985868e-01 3.470356e+00 2.783153e+00 3.273206e+00 3.569568e+00 7.258744e-01 -9.319242e-01 6.049104e-01 -5.088125e-01 -1.183726e-02 -5.838439e-01 -6.903863e-01 -1.230520e+00 -1.245121e+00 -8.895814e-01 2.548527e-01 9.386018e-01 1.384274e+00 5.639200e-02 -1.717382e-02 -2.607768e-01 6.482933e-01 5.432912e-01 5.499088e-01 6.296428e-01 7.819583e-02 2.020619e-01 -4.218245e-02 9.984402e-02 -8.526761e-02 -1.186894e-01 -2.091238e-02
<VARIANCE> 39
 1.867106e+01 4.484676e+01 3.026628e+01 1.986720e+01 2.731671e+01 2.199442e+01 4.889499e+01 4.395082e+01 7.697523e+01 8.629817e+01 7.230527e+01 9.417377e+01 3.045105e-02 1.564370e+00 2.477688e+00 2.430865e+00 2.262020e+00 2.289786e+00 3.229252e+00 3.680875e+00 4.912754e+00 6.941313e+00 8.918955e+00 1.185780e+01 1.140261e+01 2.723977e-03 2.839165e-01 5.737962e-01 4.463112e-01 4.077044e-01 5.511597e-01 5.620852e-01 7.192804e-01 7.794107e-01 1.071697e+00 1.268349e+00 1.370887e+00 1.565388e+00 6.852348e-04
<GCONST> 1.126109e+02
<STATE> 3
<NUMMIXES> 9
<MIXTURE> 1 6.085543e-02
<MEAN> 39
 -3.846536e+00 8.718547e+00 -8.558425e+00 -4.756418e+00 -8.521540e+00 -7.478915e+00 -9.460845e-01 -2.019913e+00 3.668572e+00 6.653586e+00 1.039474e+01 1.559569e+01 8.888383e-01 -3.802186e-01 -1.754430e-01 -1.080869e-01 1.729914e-01 -3.461651e-01 -4.426905e-01 -9.316317e-01 -2.698260e-01 2.489799e-01 6.629295e-01 1.601480e+00 1.620704e+00 1.903219e-02 3.975902e-01 2.424190e-01 2.861558e-01 2.240058e-01 3.052813e-01 2.536153e-01 3.217608e-01 3.008192e-01 6.034819e-02 -2.333760e-01 -4.572425e-01 -6.763714e-01 -7.040075e-03
<VARIANCE> 39
 2.277678e+01 2.842492e+01 2.011138e+01 1.127010e+01 2.699803e+01 1.828794e+01 2.737798e+01 3.595552e+01 5.372605e+01 6.126738e+01 5.865781e+01 6.247874e+01 5.523634e-03 5.463752e-01 6.779860e-01 8.841251e-01 1.037560e+00 1.374197e+00 1.076587e+00 1.608401e+00 1.010544e+00 1.023122e+00 1.863789e+00 2.913344e+00 3.810618e+00 1.566555e-04 6.270721e-02 9.585295e-02 1.394734e-01 1.478224e-01 2.354337e-01 1.545609e-01 2.434146e-01 2.897100e-01 3.386525e-01 4.614105e-01 3.300427e-01 4.616353e-01 2.634943e-05
<GCONST> 7.262077e+01
<MIXTURE> 2 6.655686e-02
<MEAN> 39
 -1.301900e-01 1.117064e+01 -2.102182e+00 -1.903951e+00 -4.895929e+00 -4.054997e+00 -4.730419e+00 -1.797159e-01 -4.377939e+00 -1.371270e+00 -2.062324e+00 9.029011e-01 8.482887e-01 -9.696659e-02 5.730200e-01 2.784740e-02 4.413961e-01 8.758476e-02 -1.055152e-01 -8.035571e-02 -3.475456e-01 -2.332208e-01 -1.249679e-01 -1.654679e-01 4.597613e-01 1.716707e-02 6.923076e-02 -8.943935e-02 2.593528e-02 -3.258251e-02 1.018966e-01 -3.819298e-03 1.639696e-01 1.440675e-01 3.308957e-01 1.808024e-01 1.807359e-01 -6.262529e-03 -3.741388e-03
<VARIANCE> 39
 1.087303e+01 3.169362e+01 1.923666e+01 1.704584e+01 2.146474e+01 3.358641e+01 3.330996e+01 3.597175e+01 2.825934e+01 2.592151e+01 3.227350e+01 3.490395e+01 5.919326e-03 3.596800e-01 6.818823e-01 1.077803e+00 1.083908e+00 1.383353e+00 1.149548e+00 1.450836e+00 1.685927e+00 1.980052e+00 2.041857e+00 1.935938e+00 1.352408e+00 2.129042e-04 7.270740e-02 9.580956e-02 1.605819e-01 1.833418e-01 2.664859e-01 3.039429e-01 2.951905e-01 3.971559e-01 3.979964e-01 2.634040e-01 2.578485e-01 3.191421e-01 4.844722e-05
<GCONST> 7.165157e+01
<MIXTURE> 3 6.654057e-02
<MEAN> 39
 -1.241032e-01 1.122474e+01 -2.072420e+00 -1.881636e+00 -4.927405e+00 -4.082321e+00 -4.709878e+00 -1.398553e-01 -4.395893e+00 -1.398912e+00 -2.135026e+00 9.415489e-01 8.473148e-01 -9.086936e-02 5.761344e-01 2.909873e-02 4.407713e-01 8.879717e-02 -1.066764e-01 -8.790177e-02 -3.437643e-01 -2.157333e-01 -1.173049e-01 -1.746284e-01 4.550446e-01 1.710973e-02 6.671534e-02 -8.952555e-02 2.072321e-02 -3.673023e-02 1.000276e-01 -6.198667e-03 1.590207e-01 1.385263e-01 3.274188e-01 1.791949e-01 1.836790e-01 -1.193115e-02 -3.639939e-03
<VARIANCE> 39
 1.080034e+01 3.165675e+01 1.895292e+01 1.704638e+01 2.139861e+01 3.345599e+01 3.339997e+01 3.561597e+01 2.825109e+01 2.599854e+01 3.222453e+01 3.481162e+01 5.935977e-03 3.539229e-01 6.739830e-01 1.061216e+00 1.078263e+00 1.368262e+00 1.141578e+00 1.442198e+00 1.669021e+00 1.945643e+00 2.029620e+00 1.916516e+00 1.333001e+00 2.112598e-04 7.203361e-02 9.536845e-02 1.589578e-01 1.825937e-01 2.648513e-01 3.016935e-01 2.935700e-01 3.864708e-01 3.980009e-01 2.628592e-01 2.564651e-01 3.169945e-01 4.718857e-05
<GCONST> 7.136255e+01
<MIXTURE> 4 1.202432e-01
<MEAN> 39
 -4.187321e-01 1.564730e+01 -1.386837e-01 -2.135883e+00 -7.180269e+00 -3.231506e+00 -1.141575e+01 1.346879e+00 -2.007676e+00 -3.763685e+00 4.242112e+00 -4.691676e+00 7.939432e-01 -8.918835e-01 6.481651e-01 5.485893e-02 -1.494000e-01 -1.136942e-01 8.268052e-02 -2.835464e-01 1.621992e-01 8.918535e-03 -4.111287e-01 3.783877e-01 -2.553951e-01 3.219176e-02 7.647603e-02 -4.892519e-01 1.369130e-01 1.485317e-01 1.585157e-01 2.950664e-02 3.663933e-01 -1.366850e-01 7.555918e-02 1.336380e-01 -1.875798e-01 2.591903e-01 -1.083614e-02
<VARIANCE> 39
 8.552211e+00 4.008258e+01 1.478243e+01 2.073486e+01 2.282771e+01 2.599335e+01 2.403849e+01 2.276095e+01 2.332241e+01 2.322700e+01 1.749113e+01 1.314075e+01 1.017219e-02 7.079206e-01 1.180954e+00 7.378029e-01 1.431345e+00 1.114171e+00 1.218721e+00 1.339592e+00 2.129372e+00 1.586382e+00 1.519674e+00 1.063843e+00 1.363403e+00 5.266641e-04 1.598671e-01 2.067864e-01 1.585180e-01 2.640047e-01 2.470471e-01 2.265233e-01 2.319835e-01 3.374069e-01 2.131553e-01 2.076689e-01 2.212164e-01 1.861037e-01 2.003714e-04
<GCONST> 7.116983e+01
<MIXTURE> 5 6.664857e-02
<MEAN> 39
 -1.127334e-01 1.126235e+01 -2.072678e+00 -1.889342e+00 -4.948382e+00 -4.140051e+00 -4.726194e+00 -1.139833e-01 -4.397740e+00 -1.392702e+00 -2.178431e+00 9.070765e-01 8.468472e-01 -8.930779e-02 5.849965e-01 2.780669e-02 4.423200e-01 8.625671e-02 -1.098606e-01 -8.982134e-02 -3.420793e-01 -2.087225e-01 -1.097644e-01 -1.760805e-01 4.529625e-01 1.697832e-02 6.480251e-02 -9.061272e-02 1.987948e-02 -3.852889e-02 1.013211e-01 -2.006224e-03 1.575158e-01 1.337445e-01 3.247996e-01 1.768123e-01 1.851428e-01 -1.119308e-02 -3.560416e-03
<VARIANCE> 39
 1.081103e+01 3.153827e+01 1.899270e+01 1.709747e+01 2.141679e+01 3.354058e+01 3.353880e+01 3.580982e+01 2.821433e+01 2.602945e+01 3.229521e+01 3.487186e+01 5.926582e-03 3.530993e-01 6.793323e-01 1.068194e+00 1.086376e+00 1.370487e+00 1.143942e+00 1.450351e+00 1.675174e+00 1.945893e+00 2.043861e+00 1.910285e+00 1.331893e+00 2.112920e-04 7.117268e-02 9.621654e-02 1.592771e-01 1.825655e-01 2.656098e-01 3.055908e-01 2.974323e-01 3.892448e-01 3.989017e-01 2.633984e-01 2.575938e-01 3.175412e-01 4.649138e-05
<GCONST> 7.144604e+01
<MIXTURE> 6 1.409403e-01
<MEAN> 39
 -1.941387e+00 1.589437e+01 1.548312e+00 -2.403076e+00 -6.319197e+00 -4.549358e+00 -1.123483e+01 4.101878e-02 -2.859989e-01 -4.040386e+00 5.451041e+00 -3.602273e+00 8.346910e-01 -1.898799e-01 5.353722e-01 -1.992200e-01 3.223414e-01 -2.309526e-01 4.242007e-02 -3.414846e-01 -9.205423e-02 -2.828723e-01 -3.150188e-01 1.426613e-01 -4.840873e-01 1.116148e-02 9.456731e-02 -2.325455e-01 3.645018e-02 -1.802009e-01 9.783007e-02 2.266558e-02 1.689054e-01 3.019381e-02 4.006122e-02 1.107020e-01 -1.684135e-01 1.385535e-01 -1.592198e-03
<VARIANCE> 39
 8.396127e+00 2.290177e+01 1.394603e+01 1.671018e+01 1.864056e+01 2.262661e+01 2.332921e+01 2.590741e+01 2.731652e+01 3.786105e+01 1.446458e+01 1.404079e+01 4.852236e-03 2.890710e-01 4.629165e-01 4.352503e-01 7.201174e-01 6.741266e-01 8.882240e-01 1.034273e+00 1.090298e+00 1.226132e+00 8.569695e-01 9.121726e-01 9.963429e-01 1.805324e-04 4.606007e-02 6.798834e-02 9.657870e-02 1.298901e-01 1.330563e-01 1.627444e-01 1.424668e-01 1.830915e-01 1.872277e-01 2.027399e-01 1.286105e-01 1.513455e-01 1.622694e-05
<GCONST> 5.367009e+01
<MIXTURE> 7 1.471997e-01
<MEAN> 39
 -1.914721e+00 1.586416e+01 1.614662e+00 -2.435707e+00 -6.245971e+00 -4.733016e+00 -1.122535e+01 -9.510727e-02 -1.127113e-01 -3.978431e+00 5.548171e+00 -3.537354e+00 8.367813e-01 -1.868115e-01 5.411364e-01 -2.006345e-01 3.269303e-01 -2.351144e-01 4.902238e-03 -3.456874e-01 -8.593758e-02 -2.658212e-01 -3.072582e-01 1.328324e-01 -5.148284e-01 1.026934e-02 8.480291e-02 -2.258689e-01 3.679739e-02 -1.857004e-01 9.295820e-02 3.379313e-02 1.633160e-01 3.134564e-02 2.834241e-02 1.032839e-01 -1.674277e-01 1.403440e-01 -1.387368e-03
<VARIANCE> 39
 8.045912e+00 2.255537e+01 1.438975e+01 1.727492e+01 1.887164e+01 2.226549e+01 2.344493e+01 2.508146e+01 2.667951e+01 3.795533e+01 1.455746e+01 1.445726e+01 4.914797e-03 2.652784e-01 4.592989e-01 4.205740e-01 7.114828e-01 6.472735e-01 8.969809e-01 1.045705e+00 1.052097e+00 1.183331e+00 8.562988e-01 8.986034e-01 9.653095e-01 1.700459e-04 4.047030e-02 6.551198e-02 9.381250e-02 1.273128e-01 1.288680e-01 1.577704e-01 1.425395e-01 1.773001e-01 1.856077e-01 2.054087e-01 1.265902e-01 1.518122e-01 1.509992e-05
<GCONST> 5.294395e+01
<MIXTURE> 8 1.687653e-01
<MEAN> 39
 -4.879640e-02 1.297359e+01 -3.756144e+00 -9.516860e-01 -5.770547e+00 -5.928413e+00 -7.920820e-01 -5.629748e-01 -2.000307e+00 1.534956e-01 -4.948444e+00 4.600134e+00 8.318458e-01 -8.612995e-01 -6.581628e-01 -8.761024e-01 -4.110588e-01 -9.878008e-01 -1.200310e+00 -1.599422e+00 -1.511718e+00 -1.304176e+00 -1.355773e+00 -1.196669e+00 -6.942489e-01 2.871143e-02 6.588417e-02 -1.457503e-01 4.708939e-02 -2.554403e-02 5.716740e-02 3.307383e-02 2.257806e-02 -1.435752e-02 2.988467e-02 2.393670e-02 1.307887e-01 -2.797965e-02 -5.689072e-03
<VARIANCE> 39
 1.557612e+01 2.681417e+01 1.474642e+01 1.506676e+01 1.226034e+01 1.449388e+01 1.911488e+01 2.692425e+01 1.889985e+01 2.481506e+01 1.869217e+01 1.726605e+01 7.114857e-03 4.222766e-01 4.498845e-01 5.716783e-01 8.412364e-01 9.642685e-01 9.733407e-01 8.511648e-01 1.234713e+00 9.779582e-01 1.385951e+00 1.641991e+00 1.973632e+00 2.409137e-04 9.487241e-02 8.238497e-02 1.037620e-01 1.449214e-01 1.752746e-01 1.772545e-01 2.213014e-01 2.027884e-01 2.268170e-01 2.242227e-01 2.391568e-01 2.201209e-01 3.732816e-05
<GCONST> 6.052013e+01
<MIXTURE> 9 1.622479e-01
<MEAN> 39
 -2.449972e+00 1.096895e+01 -6.033610e+00 -3.620173e+00 -9.000748e+00 -9.302766e+00 -5.468397e+00 -4.647949e+00 -6.124680e+00 -4.060292e+00 -7.484622e+00 -3.937689e-03 8.614097e-01 -2.743280e-01 -2.352768e-01 -2.117517e-01 2.738370e-01 -2.433627e-01 -1.279770e-01 -6.016629e-01 -8.379926e-01 -6.048108e-01 -6.604905e-01 -5.562280e-01 -9.128679e-02 1.737037e-02 3.432449e-01 1.837521e-01 4.549409e-01 3.307493e-01 5.223979e-01 5.513423e-01 5.664476e-01 6.440787e-01 6.740334e-01 6.485085e-01 6.501698e-01 3.851266e-01 -5.795177e-03
<VARIANCE> 39
 1.181363e+01 2.954497e+01 1.512045e+01 1.669843e+01 1.545816e+01 1.900401e+01 2.825002e+01 2.301961e+01 2.400486e+01 2.120800e+01 2.661570e+01 3.769035e+01 8.019386e-03 4.122065e-01 4.541270e-01 6.788419e-01 1.163834e+00 1.049627e+00 1.146036e+00 1.344346e+00 1.322176e+00 1.158138e+00 1.586645e+00 1.990336e+00 2.389159e+00 1.996730e-04 6.357609e-02 1.123062e-01 1.028184e-01 1.858681e-01 1.598108e-01 2.085921e-01 2.185404e-01 2.082055e-01 1.816677e-01 2.265136e-01 3.272029e-01 3.253358e-01 6.788239e-05
<GCONST> 6.562010e+01
<STATE> 4
<NUMMIXES> 9
<MIXTURE> 1 8.842909e-02
<MEAN> 39
 -7.747758e-01 1.267600e+01 -3.397257e+00 -1.947388e+00 -5.986559e+00 -6.755450e+00 -3.785959e+00 -1.829672e+00 2.288226e-01 -1.337647e-01 1.592601e+00 2.525357e+00 8.733583e-01 1.133262e-01 6.327296e-01 4.475667e-01 7.063053e-01 3.942837e-01 5.540069e-01 4.407448e-01 3.216377e-01 3.891819e-01 3.987881e-01 5.444298e-01 4.518662e-01 1.050191e-02 8.507872e-02 -1.332979e-01 2.613859e-02 -6.297419e-02 8.976746e-02 9.878574e-02 5.127734e-02 1.322857e-01 3.578415e-02 4.783827e-02 -7.586698e-02 -9.565432e-02 -3.971528e-03
<VARIANCE> 39
 1.549471e+01 3.173084e+01 3.237996e+01 2.131130e+01 3.387502e+01 3.604242e+01 3.938963e+01 3.539680e+01 5.512546e+01 6.630504e+01 8.223183e+01 1.005553e+02 9.426772e-03 5.688322e-01 9.082415e-01 1.051682e+00 1.166809e+00 1.442234e+00 1.738942e+00 1.999571e+00 1.480709e+00 1.459782e+00 2.255630e+00 2.032824e+00 3.062997e+00 1.850418e-04 6.532748e-02 1.146364e-01 1.858393e-01 2.207937e-01 2.856654e-01 2.489416e-01 2.715352e-01 3.123808e-01 3.265283e-01 3.055373e-01 4.308735e-01 3.541047e-01 7.012155e-05
<GCONST> 8.034528e+01
<MIXTURE> 2 1.016294e-01
<MEAN> 39
 -1.350137e+00 1.576307e+01 4.888461e-01 -1.348850e+00 -5.324944e+00 -3.506609e+00 -1.080216e+01 5.665652e-01 -1.519895e+00 -4.742188e+00 5.031175e+00 -3.760994e+00 8.654370e-01 -1.064181e-02 1.361735e-01 -6.646685e-03 5.143394e-02 1.764397e-01 5.699334e-02 2.773580e-02 1.094494e-02 1.407331e-02 1.509108e-02 -2.426513e-02 -2.016329e-02 2.651075e-03 5.621777e-03 -6.286963e-02 9.295100e-04 -6.231497e-02 -8.638055e-03 -6.968880e-02 4.140676e-02 -2.613705e-02 1.279028e-02 3.499402e-02 -1.579335e-02 3.911575e-02 -1.249265e-03
<VARIANCE> 39
 9.248939e+00 2.387578e+01 9.133872e+00 1.476708e+01 2.298537e+01 1.997015e+01 2.046480e+01 2.519821e+01 2.463973e+01 3.571148e+01 1.955255e+01 1.959743e+01 4.556297e-03 9.674829e-02 1.470415e-01 2.313047e-01 2.750723e-01 3.072412e-01 3.889630e-01 4.388853e-01 5.113919e-01 4.920518e-01 4.415752e-01 4.332514e-01 4.467120e-01 3.754082e-05 1.619276e-02 2.871960e-02 4.090892e-02 5.158610e-02 6.348809e-02 7.037580e-02 7.583442e-02 8.963888e-02 1.081429e-01 8.250291e-02 8.084854e-02 8.234476e-02 4.033180e-06
<GCONST> 3.131732e+01
<MIXTURE> 3 1.019868e-01
<MEAN> 39
 -1.356548e+00 1.578672e+01 5.017067e-01 -1.356013e+00 -5.350265e+00 -3.499265e+00 -1.082570e+01 5.651086e-01 -1.501404e+00 -4.768402e+00 5.043266e+00 -3.790233e+00 8.652330e-01 -1.124901e-02 1.353422e-01 -6.967724e-03 5.071923e-02 1.760659e-01 5.561959e-02 2.707907e-02 1.061043e-02 1.303136e-02 1.439674e-02 -2.458695e-02 -2.112787e-02 2.648617e-03 5.813949e-03 -6.277058e-02 1.022966e-03 -6.220298e-02 -7.967045e-03 -6.945720e-02 4.164695e-02 -2.605418e-02 1.266214e-02 3.530958e-02 -1.584614e-02 4.020762e-02 -1.246346e-03
<VARIANCE> 39
 9.264506e+00 2.386237e+01 9.131812e+00 1.472910e+01 2.305421e+01 1.997541e+01 2.040585e+01 2.521009e+01 2.460183e+01 3.565154e+01 1.944822e+01 1.942877e+01 4.554122e-03 9.654322e-02 1.469123e-01 2.309901e-01 2.752244e-01 3.066578e-01 3.887752e-01 4.391362e-01 5.112219e-01 4.929818e-01 4.419787e-01 4.338115e-01 4.459269e-01 3.754082e-05 1.618683e-02 2.869601e-02 4.084282e-02 5.158982e-02 6.340602e-02 7.043333e-02 7.586111e-02 8.978055e-02 1.084282e-01 8.253530e-02 8.090747e-02 8.218053e-02 4.035677e-06
<GCONST> 3.129625e+01
<MIXTURE> 4 1.092722e-01
<MEAN> 39
 -2.255854e+00 1.340918e+01 -9.599774e-01 -2.141594e+00 -3.401775e+00 -5.549783e+00 -5.869645e+00 -1.535662e-01 -1.692653e+00 -2.178549e+00 2.355821e+00 2.131710e-01 8.934323e-01 1.726404e-02 1.509485e-02 -1.755006e-02 -7.848322e-02 5.396127e-02 -1.397504e-02 6.463420e-02 -7.549586e-03 2.822842e-02 -1.756141e-03 -9.282048e-03 2.568561e-02 -1.104702e-05 1.399119e-02 -2.411348e-02 1.188573e-02 -2.384815e-02 5.152585e-04 -6.523645e-03 -8.792874e-04 1.096901e-02 1.899598e-02 8.697473e-03 -3.112784e-03 -6.811436e-03 -9.197279e-04
<VARIANCE> 39
 7.270472e+00 4.227460e+01 9.814593e+00 7.607172e+00 8.731181e+00 1.640720e+01 2.580470e+01 1.340236e+01 2.186101e+01 2.570467e+01 3.372798e+01 2.803724e+01 5.714314e-03 4.040603e-02 7.071881e-02 9.160711e-02 1.247640e-01 1.236724e-01 1.431713e-01 1.710578e-01 1.570384e-01 1.591602e-01 1.887150e-01 1.310549e-01 1.569238e-01 3.754082e-05 5.278408e-03 1.314489e-02 1.424962e-02 1.806514e-02 2.136488e-02 2.122809e-02 2.499748e-02 2.758050e-02 2.724062e-02 3.055646e-02 2.108613e-02 2.878068e-02 3.730628e-06
<GCONST> 5.171350e+00
<MIXTURE> 5 1.011071e-01
<MEAN> 39
 -1.334943e+00 1.573323e+01 4.665345e-01 -1.336642e+00 -5.287969e+00 -3.520305e+00 -1.077144e+01 5.829200e-01 -1.557755e+00 -4.688061e+00 5.010843e+00 -3.723863e+00 8.655533e-01 -9.429161e-03 1.373276e-01 -6.453363e-03 5.262308e-02 1.768817e-01 5.968862e-02 2.907952e-02 1.097179e-02 1.551562e-02 1.509006e-02 -2.312514e-02 -1.860121e-02 2.648848e-03 5.298282e-03 -6.306641e-02 7.700988e-04 -6.269044e-02 -9.327507e-03 -6.990223e-02 4.094482e-02 -2.670568e-02 1.314037e-02 3.433568e-02 -1.561924e-02 3.763168e-02 -1.249619e-03
<VARIANCE> 39
 9.182812e+00 2.388053e+01 9.127295e+00 1.481536e+01 2.288272e+01 1.996337e+01 2.053508e+01 2.512501e+01 2.462179e+01 3.570332e+01 1.970293e+01 1.980009e+01 4.561332e-03 9.702032e-02 1.470877e-01 2.317290e-01 2.751906e-01 3.079429e-01 3.891050e-01 4.384459e-01 5.117212e-01 4.910061e-01 4.413083e-01 4.329925e-01 4.479382e-01 3.754082e-05 1.618252e-02 2.871151e-02 4.101031e-02 5.163152e-02 6.360676e-02 7.031077e-02 7.582805e-02 8.934443e-02 1.077148e-01 8.240820e-02 8.080566e-02 8.251251e-02 4.033577e-06
<GCONST> 3.133022e+01
<MIXTURE> 6 1.090780e-01
<MEAN> 39
 -2.279751e+00 1.351163e+01 -9.187979e-01 -2.150031e+00 -3.441745e+00 -5.553565e+00 -5.963675e+00 -1.642479e-01 -1.675879e+00 -2.260108e+00 2.405233e+00 1.012269e-01 8.928366e-01 1.673580e-02 1.459300e-02 -1.885630e-02 -8.003221e-02 5.314101e-02 -1.643091e-02 6.419909e-02 -8.543639e-03 2.827522e-02 -1.539204e-03 -8.852570e-03 2.630566e-02 2.787490e-06 1.420345e-02 -2.446010e-02 1.213211e-02 -2.387618e-02 8.186903e-04 -6.158642e-03 -4.503694e-04 1.099858e-02 1.931655e-02 8.980185e-03 -3.192307e-03 -5.868323e-03 -9.242434e-04
<VARIANCE> 39
 7.329450e+00 4.243503e+01 9.884517e+00 7.614541e+00 8.767783e+00 1.635552e+01 2.567086e+01 1.353980e+01 2.160688e+01 2.571371e+01 3.337904e+01 2.752819e+01 5.706663e-03 4.069183e-02 7.075968e-02 9.187526e-02 1.244428e-01 1.238676e-01 1.436608e-01 1.705181e-01 1.569665e-01 1.604999e-01 1.895469e-01 1.311332e-01 1.574221e-01 3.754082e-05 5.340006e-03 1.323362e-02 1.426616e-02 1.808234e-02 2.150531e-02 2.133561e-02 2.501364e-02 2.766236e-02 2.742950e-02 3.064364e-02 2.104815e-02 2.872844e-02 3.730628e-06
<GCONST> 5.223602e+00
<MIXTURE> 7 1.090814e-01
<MEAN> 39
 -2.279645e+00 1.351396e+01 -9.188748e-01 -2.150128e+00 -3.442026e+00 -5.554115e+00 -5.965450e+00 -1.648968e-01 -1.675523e+00 -2.262805e+00 2.405639e+00 9.755098e-02 8.928158e-01 1.671558e-02 1.458382e-02 -1.889187e-02 -8.007083e-02 5.308437e-02 -1.645310e-02 6.414372e-02 -8.551830e-03 2.830940e-02 -1.539399e-03 -8.857681e-03 2.631038e-02 3.531178e-06 1.420630e-02 -2.447008e-02 1.214131e-02 -2.389394e-02 8.258587e-04 -6.149312e-03 -4.464481e-04 1.100730e-02 1.930018e-02 8.997288e-03 -3.189612e-03 -5.838862e-03 -9.243109e-04
<VARIANCE> 39
 7.323729e+00 4.245454e+01 9.885178e+00 7.613655e+00 8.767571e+00 1.635595e+01 2.567000e+01 1.353887e+01 2.159109e+01 2.569385e+01 3.336523e+01 2.750102e+01 5.706551e-03 4.069158e-02 7.075286e-02 9.187026e-02 1.244421e-01 1.238618e-01 1.436724e-01 1.705134e-01 1.569740e-01 1.605202e-01 1.895627e-01 1.311371e-01 1.573968e-01 3.754082e-05 5.340050e-03 1.323221e-02 1.426533e-02 1.808123e-02 2.150587e-02 2.133713e-02 2.501270e-02 2.766185e-02 2.742945e-02 3.064733e-02 2.104739e-02 2.872053e-02 3.730628e-06
<GCONST> 5.219831e+00
<MIXTURE> 8 6.697249e-02
<MEAN> 39
 -2.843336e+00 8.622273e+00 -2.361084e+00 -6.186728e-01 -3.708378e+00 -2.813132e+00 -2.212642e+00 -2.643109e-01 -2.143772e+00 7.324829e-01 1.047339e+00 9.171073e+00 9.389256e-01 -1.063251e-01 -3.103050e-01 -3.344647e-01 -5.966271e-02 -1.682468e-01 -3.845356e-01 -3.333136e-01 -3.745261e-01 1.042177e-02 -9.526674e-02 3.697081e-02 -5.006929e-02 5.505224e-03 -1.798133e-02 -2.842783e-02 -4.488833e-02 -8.335721e-02 -8.668700e-02 -4.046828e-02 7.712661e-03 -3.522602e-02 -1.642601e-02 -5.562889e-03 -1.024031e-01 -1.576791e-01 -2.288884e-03
<VARIANCE> 39
 1.356371e+01 1.843599e+01 6.327036e+00 1.088569e+01 8.984582e+00 1.386165e+01 1.239938e+01 1.165079e+01 2.098670e+01 2.496168e+01 4.320787e+01 4.437215e+01 3.103575e-03 9.089330e-02 1.504765e-01 2.064043e-01 2.837677e-01 3.619842e-01 3.416306e-01 4.468382e-01 3.621775e-01 2.565376e-01 2.795579e-01 4.291798e-01 5.532327e-01 4.205255e-05 1.989472e-02 2.627033e-02 3.314763e-02 3.039613e-02 5.514925e-02 3.961383e-02 7.169503e-02 4.831325e-02 5.967595e-02 6.311509e-02 9.118901e-02 7.253033e-02 3.898842e-06
<GCONST> 2.477963e+01
<MIXTURE> 9 2.124406e-01
<MEAN> 39
 -1.290201e+00 1.224243e+01 -4.014601e+00 -1.830490e+00 -6.489480e+00 -6.673951e+00 -5.327921e+00 -1.697438e+00 -5.440938e+00 -1.861917e+00 -4.055368e+00 1.626621e+00 8.894405e-01 1.638935e-01 1.684416e-01 2.144183e-01 4.197994e-01 1.841827e-01 1.817851e-01 1.341506e-01 1.243557e-01 2.296675e-01 8.290799e-02 1.070041e-01 1.835348e-01 1.039181e-02 9.376557e-02 4.007005e-02 1.188163e-01 2.008914e-02 1.609588e-01 1.124420e-01 1.968425e-01 2.331697e-01 2.824034e-01 2.060035e-01 2.026967e-01 -8.897139e-03 -4.058181e-03
<VARIANCE> 39
 9.729220e+00 3.529246e+01 1.270483e+01 1.328460e+01 1.566282e+01 2.189268e+01 2.332594e+01 2.992941e+01 1.974303e+01 2.335677e+01 3.131921e+01 3.551667e+01 5.267147e-03 1.980159e-01 3.575698e-01 4.699896e-01 4.936501e-01 6.602224e-01 7.070552e-01 9.902201e-01 8.802688e-01 8.059007e-01 7.765424e-01 9.768313e-01 8.136824e-01 5.877654e-05 3.853250e-02 6.206956e-02 8.194506e-02 8.883037e-02 1.209041e-01 1.213963e-01 1.629291e-01 1.833196e-01 1.350068e-01 1.459915e-01 1.802019e-01 1.490076e-01 1.193385e-05
<GCONST> 4.991290e+01
<STATE> 5
<NUMMIXES> 9
<MIXTURE> 1 8.437003e-02
<MEAN> 39
 -8.812447e-01 1.182547e+01 -4.670918e+00 -1.950206e+00 -7.871913e+00 -6.869678e+00 -3.132303e+00 -1.148537e+00 1.036161e+00 7.045551e-01 5.252800e+00 5.882270e+00 9.002825e-01 5.002545e-02 1.298157e-01 1.525774e-01 1.363683e-01 2.195311e-02 2.115707e-01 1.093969e-01 -4.131405e-02 1.012115e-01 1.904126e-01 1.784146e-01 -9.245109e-02 6.796638e-03 2.598885e-02 -8.556385e-02 4.199786e-02 -1.377677e-01 1.237178e-01 5.169732e-02 1.376106e-02 -1.209835e-02 3.288228e-02 1.793837e-02 -7.407065e-02 -2.838418e-02 -2.934680e-03
<VARIANCE> 39
 2.092181e+01 3.417605e+01 3.462928e+01 2.238048e+01 4.000629e+01 3.603109e+01 3.892075e+01 2.570731e+01 4.600112e+01 7.763453e+01 8.275195e+01 1.320800e+02 7.322654e-03 4.185120e-01 8.759300e-01 9.362274e-01 1.156897e+00 1.757111e+00 1.733416e+00 1.473128e+00 1.335762e+00 1.231938e+00 1.716074e+00 2.008254e+00 2.252516e+00 9.493208e-05 5.830602e-02 1.169291e-01 1.791137e-01 2.039896e-01 2.620789e-01 2.037191e-01 2.220306e-01 2.231999e-01 1.888683e-01 3.414459e-01 2.990951e-01 2.554233e-01 2.758303e-05
<GCONST> 7.546606e+01
<MIXTURE> 2 8.455458e-02
<MEAN> 39
 6.701829e-01 1.418982e+01 -3.812146e+00 6.321932e-01 -5.881921e+00 -5.437349e+00 -2.012233e+00 -1.276123e+00 -2.079286e+00 -1.351234e+00 -4.332151e+00 2.560137e+00 8.728004e-01 2.911020e-01 4.091952e-01 4.043284e-01 5.696944e-01 5.636448e-01 4.898763e-01 6.483404e-01 4.895336e-01 5.881752e-01 5.804844e-01 4.753801e-01 3.631044e-01 1.056353e-03 -9.774116e-02 -1.716825e-01 -1.652240e-01 -2.384555e-01 -1.573334e-01 -2.358810e-01 -1.507579e-01 -2.099021e-01 -1.891491e-01 -1.271933e-01 -1.261987e-01 -1.842303e-01 -1.167666e-03
<VARIANCE> 39
 1.400344e+01 2.321406e+01 1.339238e+01 1.419350e+01 1.365128e+01 2.099294e+01 1.522834e+01 2.923328e+01 2.001867e+01 2.440653e+01 2.711747e+01 3.492694e+01 8.038503e-03 1.318631e-01 2.607929e-01 3.435504e-01 4.014562e-01 5.637656e-01 8.001036e-01 7.161368e-01 7.704437e-01 7.008312e-01 7.007547e-01 6.513187e-01 7.987328e-01 3.930348e-05 2.569436e-02 4.829422e-02 7.965626e-02 9.495997e-02 1.059222e-01 1.379694e-01 1.444436e-01 1.348307e-01 1.352096e-01 1.640021e-01 1.413183e-01 1.351327e-01 4.316133e-06
<GCONST> 4.457516e+01
<MIXTURE> 3 8.496639e-02
<MEAN> 39
 6.188990e-01 1.414693e+01 -3.880341e+00 5.768155e-01 -5.895334e+00 -5.464179e+00 -2.018035e+00 -1.306491e+00 -2.095232e+00 -1.398928e+00 -4.346561e+00 2.530884e+00 8.721708e-01 2.904115e-01 4.104084e-01 4.123085e-01 5.718485e-01 5.739427e-01 4.973384e-01 6.528523e-01 4.995791e-01 5.919034e-01 5.790695e-01 4.752871e-01 3.614795e-01 9.219146e-04 -9.263229e-02 -1.659735e-01 -1.563446e-01 -2.285979e-01 -1.502714e-01 -2.277927e-01 -1.434948e-01 -2.021150e-01 -1.817224e-01 -1.195501e-01 -1.218394e-01 -1.794856e-01 -1.154147e-03
<VARIANCE> 39
 1.409746e+01 2.309838e+01 1.321159e+01 1.422000e+01 1.361331e+01 2.101725e+01 1.521082e+01 2.917063e+01 1.993049e+01 2.421945e+01 2.664267e+01 3.471640e+01 8.312480e-03 1.298710e-01 2.548260e-01 3.369697e-01 3.961965e-01 5.568618e-01 7.854631e-01 7.057422e-01 7.617484e-01 6.867558e-01 6.906047e-01 6.396635e-01 7.756262e-01 3.821935e-05 2.461986e-02 4.690858e-02 7.685335e-02 9.285260e-02 1.042195e-01 1.332409e-01 1.392068e-01 1.315780e-01 1.310856e-01 1.570731e-01 1.383405e-01 1.286257e-01 4.193864e-06
<GCONST> 4.390394e+01
<MIXTURE> 4 1.185978e-01
<MEAN> 39
 -6.030518e-01 1.430337e+01 -3.597906e+00 -1.141687e+00 -6.351777e+00 -7.093282e+00 -5.347393e+00 -1.971477e+00 -2.569271e+00 -2.198563e+00 -2.677221e+00 4.810345e-01 8.721104e-01 -4.504862e-02 -1.313349e-01 -2.230274e-01 -2.061745e-01 -1.600168e-01 -2.717336e-01 -1.393957e-01 -2.038258e-01 -4.111987e-02 -1.585090e-01 -1.409168e-01 -2.088533e-01 -1.012956e-03 -1.370800e-03 -1.529794e-02 4.087092e-02 -2.556542e-02 5.977566e-02 7.481186e-03 5.361294e-02 5.161485e-02 7.029130e-02 3.134913e-02 4.072351e-02 1.398566e-02 -1.204137e-03
<VARIANCE> 39
 1.249967e+01 2.963891e+01 2.071787e+01 1.595082e+01 1.822567e+01 2.298913e+01 2.847935e+01 2.972816e+01 2.686300e+01 3.456126e+01 4.891277e+01 4.139985e+01 5.879777e-03 9.131069e-02 1.869494e-01 3.030997e-01 3.590089e-01 4.279462e-01 4.807285e-01 5.601759e-01 5.068962e-01 5.660779e-01 4.735142e-01 4.629389e-01 4.851866e-01 3.754082e-05 1.549070e-02 3.113161e-02 4.058352e-02 4.932157e-02 6.187816e-02 7.353786e-02 7.928203e-02 8.069058e-02 8.941275e-02 8.191447e-02 7.493465e-02 8.678358e-02 3.730628e-06
<GCONST> 3.660725e+01
<MIXTURE> 5 8.598110e-02
<MEAN> 39
 5.691895e-01 1.410902e+01 -3.931996e+00 5.311592e-01 -5.919559e+00 -5.491168e+00 -2.015922e+00 -1.315383e+00 -2.116056e+00 -1.447538e+00 -4.394430e+00 2.479641e+00 8.712244e-01 2.909082e-01 4.131522e-01 4.206037e-01 5.742592e-01 5.859711e-01 5.052560e-01 6.591594e-01 5.109822e-01 5.972629e-01 5.796360e-01 4.770490e-01 3.606100e-01 7.996745e-04 -8.888642e-02 -1.617416e-01 -1.504249e-01 -2.218844e-01 -1.454713e-01 -2.220836e-01 -1.386914e-01 -1.983220e-01 -1.766389e-01 -1.144679e-01 -1.186452e-01 -1.758641e-01 -1.138632e-03
<VARIANCE> 39
 1.415285e+01 2.297103e+01 1.294753e+01 1.427233e+01 1.350442e+01 2.104090e+01 1.516072e+01 2.904506e+01 1.984393e+01 2.397886e+01 2.586903e+01 3.415424e+01 8.610626e-03 1.278091e-01 2.492329e-01 3.302745e-01 3.899935e-01 5.476049e-01 7.687484e-01 6.922100e-01 7.506248e-01 6.713663e-01 6.795601e-01 6.283191e-01 7.496972e-01 3.754082e-05 2.366162e-02 4.571335e-02 7.463486e-02 9.118123e-02 1.026242e-01 1.294096e-01 1.344896e-01 1.285884e-01 1.273548e-01 1.514742e-01 1.352994e-01 1.229678e-01 4.078780e-06
<GCONST> 4.321618e+01
<MIXTURE> 6 1.195504e-01
<MEAN> 39
 -6.188866e-01 1.448764e+01 -3.536224e+00 -1.158286e+00 -6.266678e+00 -7.037073e+00 -5.440506e+00 -1.885895e+00 -2.427026e+00 -2.082779e+00 -2.396799e+00 5.199013e-01 8.711901e-01 -3.404893e-02 -1.147798e-01 -1.942126e-01 -1.892107e-01 -1.319150e-01 -2.464563e-01 -1.056303e-01 -1.770128e-01 -1.293672e-02 -1.336778e-01 -1.228964e-01 -1.848567e-01 -1.106533e-03 -2.211933e-03 -2.114695e-02 3.889325e-02 -2.978176e-02 5.571802e-02 -3.666052e-04 5.083825e-02 4.463967e-02 6.493367e-02 2.857331e-02 3.754290e-02 9.891972e-03 -1.200894e-03
<VARIANCE> 39
 1.241654e+01 2.987404e+01 2.167255e+01 1.607592e+01 1.819514e+01 2.282209e+01 2.881593e+01 2.950101e+01 2.760748e+01 3.563427e+01 5.077855e+01 4.299899e+01 5.868705e-03 8.971939e-02 1.801740e-01 2.893829e-01 3.491145e-01 4.151979e-01 4.673539e-01 5.343302e-01 4.937089e-01 5.449660e-01 4.625523e-01 4.444687e-01 4.666607e-01 3.754082e-05 1.565418e-02 3.040051e-02 4.022554e-02 4.939650e-02 6.146955e-02 7.294793e-02 7.838485e-02 7.834249e-02 8.906122e-02 8.158324e-02 7.509962e-02 8.698817e-02 3.730628e-06
<GCONST> 3.630627e+01
<MIXTURE> 7 1.190320e-01
<MEAN> 39
 -6.088634e-01 1.435906e+01 -3.599026e+00 -1.144945e+00 -6.316591e+00 -7.089814e+00 -5.357101e+00 -1.953691e+00 -2.520758e+00 -2.142293e+00 -2.593313e+00 5.301372e-01 8.717350e-01 -4.086322e-02 -1.247651e-01 -2.119923e-01 -1.989232e-01 -1.498084e-01 -2.612266e-01 -1.261157e-01 -1.934979e-01 -3.053889e-02 -1.482421e-01 -1.334528e-01 -1.994348e-01 -1.053124e-03 -1.701544e-03 -1.736571e-02 4.012983e-02 -2.728502e-02 5.766707e-02 4.380894e-03 5.235774e-02 4.916992e-02 6.785313e-02 2.985129e-02 3.938735e-02 1.187904e-02 -1.202639e-03
<VARIANCE> 39
 1.247940e+01 2.965048e+01 2.106951e+01 1.597844e+01 1.819330e+01 2.285696e+01 2.844867e+01 2.958306e+01 2.722085e+01 3.500111e+01 4.965372e+01 4.213967e+01 5.891566e-03 9.051589e-02 1.837648e-01 2.967494e-01 3.544554e-01 4.218345e-01 4.746329e-01 5.481104e-01 5.004321e-01 5.562444e-01 4.681183e-01 4.543045e-01 4.774339e-01 3.754082e-05 1.550889e-02 3.066080e-02 4.033267e-02 4.918745e-02 6.154996e-02 7.308653e-02 7.873752e-02 7.936102e-02 8.903604e-02 8.154230e-02 7.486660e-02 8.683421e-02 3.730628e-06
<GCONST> 3.641908e+01
<MIXTURE> 8 1.373542e-01
<MEAN> 39
 2.684978e-01 1.421433e+01 -3.631684e+00 5.594295e-01 -5.462071e+00 -5.634791e+00 -1.293289e+00 -3.332456e-01 -2.054448e+00 -7.623086e-01 -4.532266e+00 2.810494e+00 8.719301e-01 -1.596685e-01 -3.407582e-01 -4.614310e-01 -4.474050e-01 -4.744511e-01 -5.837950e-01 -3.617890e-01 -5.543013e-01 -4.286890e-01 -3.789448e-01 -4.444841e-01 -4.922386e-01 1.143303e-03 -1.285664e-01 -1.918267e-01 -2.436570e-01 -3.153046e-01 -2.812313e-01 -2.977025e-01 -2.797410e-01 -2.832358e-01 -2.311852e-01 -2.609871e-01 -1.808231e-01 -2.432322e-01 -1.246147e-03
<VARIANCE> 39
 1.348893e+01 2.214368e+01 9.948515e+00 1.366520e+01 1.189934e+01 2.276193e+01 1.542936e+01 2.288449e+01 2.074554e+01 2.107620e+01 2.049862e+01 2.998924e+01 7.755518e-03 9.085855e-02 1.987997e-01 2.783968e-01 3.474084e-01 4.111900e-01 4.262961e-01 4.463049e-01 4.829656e-01 5.279056e-01 6.088495e-01 4.717539e-01 4.892306e-01 3.754082e-05 1.783853e-02 4.394279e-02 4.731631e-02 5.944337e-02 6.454581e-02 1.043978e-01 1.058892e-01 9.781480e-02 8.596682e-02 8.318131e-02 8.715638e-02 9.497942e-02 4.308156e-06
<GCONST> 3.429792e+01
<MIXTURE> 9 1.655914e-01
<MEAN> 39
 -1.206438e+00 1.176774e+01 -6.330317e+00 -2.806086e+00 -9.499990e+00 -8.794631e+00 -5.005817e+00 -3.894552e+00 -5.138052e+00 -4.511950e+00 -6.995995e+00 1.545170e-01 8.717891e-01 9.307500e-02 1.801111e-01 7.453095e-02 1.712038e-01 2.102121e-01 2.899503e-01 2.383599e-01 2.317383e-01 3.245550e-01 1.597325e-01 1.788861e-01 -3.681910e-02 -7.743874e-05 1.331858e-01 1.992921e-01 2.849440e-01 2.656234e-01 3.788452e-01 3.560194e-01 4.011643e-01 3.638366e-01 3.516778e-01 2.930634e-01 2.555517e-01 2.018266e-01 -1.071988e-03
<VARIANCE> 39
 1.661143e+01 2.196768e+01 1.278167e+01 1.442832e+01 1.408566e+01 2.370524e+01 1.664491e+01 2.510414e+01 2.045430e+01 2.613905e+01 1.925574e+01 3.223141e+01 6.982589e-03 1.328857e-01 2.441575e-01 3.337775e-01 5.376801e-01 5.331129e-01 6.006328e-01 6.282353e-01 5.987875e-01 5.978516e-01 6.358195e-01 5.243552e-01 5.692590e-01 3.754082e-05 1.429994e-02 3.692756e-02 4.468118e-02 6.273194e-02 6.781147e-02 9.057949e-02 8.278897e-02 9.054266e-02 1.084929e-01 9.224807e-02 8.762296e-02 1.084975e-01 3.730628e-06
<GCONST> 3.759094e+01
<STATE> 6
<NUMMIXES> 9
<MIXTURE> 1 1.066785e-01
<MEAN> 39
 -1.318224e+00 1.086333e+00 -1.243690e+00 -4.876624e-01 -1.111575e+00 -1.213839e+00 -1.170651e+00 -1.192370e+00 -1.070413e+00 -1.370366e+00 -1.660438e+00 -9.326460e-01 9.738122e-01 3.036659e-01 4.320075e-01 5.414516e-01 5.273203e-01 5.294557e-01 4.622608e-01 6.358196e-01 6.545371e-01 5.334198e-01 3.852167e-01 3.474731e-01 3.224940e-01 -1.885905e-03 1.118023e-02 2.143388e-02 1.313977e-03 -1.653099e-02 1.541415e-03 7.927933e-03 9.781601e-03 1.823633e-03 3.596923e-02 3.468268e-02 1.944742e-03 5.872218e-02 -6.031958e-04
<VARIANCE> 39
 2.402751e+00 2.875734e+00 6.540977e+00 6.134874e+00 8.050312e+00 5.164380e+00 8.415037e+00 6.609218e+00 7.347991e+00 8.132573e+00 1.913921e+01 1.003899e+01 8.178990e-04 7.577021e-02 1.769271e-01 2.434232e-01 3.240848e-01 5.006655e-01 4.165512e-01 5.097457e-01 5.076401e-01 3.662726e-01 4.001858e-01 4.295763e-01 4.235955e-01 3.754082e-05 1.178622e-02 2.617428e-02 4.668564e-02 4.894354e-02 6.981649e-02 6.435522e-02 7.572773e-02 6.971052e-02 6.274533e-02 5.432148e-02 9.087558e-02 5.673011e-02 3.730628e-06
<GCONST> 1.543996e+01
<MIXTURE> 2 6.791773e-02
<MEAN> 39
 -1.147204e-01 3.018525e+00 -4.328774e-01 -1.643935e-01 -6.589711e-01 -1.095130e+00 -3.171465e-01 -3.309324e-01 -6.545964e-01 -4.306792e-01 -8.261200e-01 4.330353e-01 9.439729e-01 3.126816e-01 7.463215e-02 2.336378e-01 2.734894e-01 2.219424e-01 1.334222e-01 1.900198e-01 4.665858e-02 2.939062e-01 3.239045e-01 1.668829e-01 9.066695e-02 -5.595949e-03 -1.912997e-02 -7.961494e-02 -1.291468e-01 -9.700218e-02 -1.378464e-01 -1.045231e-01 -1.851228e-01 -1.267154e-01 -8.547232e-02 -5.997375e-02 -1.422626e-02 -6.812533e-02 -1.050687e-03
<VARIANCE> 39
 6.109774e+00 8.649546e+00 8.317651e+00 7.642295e+00 9.857475e+00 1.171820e+01 1.523771e+01 1.213174e+01 1.057663e+01 1.199507e+01 1.494282e+01 9.935114e+00 1.781538e-03 2.171153e-01 3.536381e-01 5.125611e-01 6.129892e-01 7.698546e-01 7.768397e-01 1.072013e+00 8.818118e-01 9.135892e-01 8.366428e-01 8.929082e-01 6.266376e-01 4.136865e-05 3.753881e-02 6.845059e-02 9.699376e-02 1.092696e-01 1.545301e-01 1.446820e-01 1.760866e-01 1.796899e-01 1.535679e-01 1.397040e-01 1.459279e-01 1.025549e-01 3.730628e-06
<GCONST> 3.973386e+01
<MIXTURE> 3 6.821097e-02
<MEAN> 39
 -1.603259e-01 3.002008e+00 -4.543985e-01 -1.677028e-01 -6.338744e-01 -1.026278e+00 -3.451346e-01 -3.186534e-01 -5.800923e-01 -4.019537e-01 -7.556432e-01 4.310014e-01 9.444032e-01 3.034284e-01 6.731692e-02 2.226263e-01 2.585221e-01 2.152012e-01 1.338249e-01 1.832052e-01 4.995087e-02 2.800670e-01 3.049072e-01 1.474048e-01 7.608674e-02 -5.526368e-03 -1.859783e-02 -7.926617e-02 -1.256156e-01 -9.577837e-02 -1.373576e-01 -1.073844e-01 -1.757549e-01 -1.202107e-01 -9.023653e-02 -6.039718e-02 -1.984752e-02 -6.497459e-02 -1.041120e-03
<VARIANCE> 39
 6.086477e+00 8.489177e+00 8.125769e+00 7.541663e+00 9.760430e+00 1.156101e+01 1.532374e+01 1.194987e+01 1.026893e+01 1.173997e+01 1.474607e+01 9.840531e+00 1.765411e-03 2.129816e-01 3.357494e-01 4.914843e-01 6.029941e-01 7.459745e-01 7.408422e-01 1.034060e+00 8.478764e-01 8.794135e-01 8.043814e-01 8.662651e-01 6.084290e-01 4.095552e-05 3.672578e-02 6.548166e-02 9.383392e-02 1.070839e-01 1.514928e-01 1.402926e-01 1.712187e-01 1.745861e-01 1.481660e-01 1.342225e-01 1.437455e-01 1.006076e-01 3.730628e-06
<GCONST> 3.879071e+01
<MIXTURE> 4 1.280664e-01
<MEAN> 39
 -3.435250e-01 1.399752e+01 -2.555766e+00 -7.811211e-01 -5.760381e+00 -5.346257e+00 -4.572571e+00 -3.594172e-01 -5.310170e-01 -3.944835e-01 1.209181e+00 1.380543e+00 8.766322e-01 -1.042422e-01 -7.812267e-02 5.493237e-02 -2.272447e-01 1.810287e-01 -1.189603e-01 9.680091e-02 -9.577678e-02 1.938780e-01 6.316119e-02 1.696233e-01 -1.479252e-01 8.546328e-04 -5.129511e-02 -1.765741e-01 -8.911032e-02 -2.820062e-01 7.230952e-02 -1.718755e-01 -8.509704e-02 -1.486822e-01 3.202957e-03 -1.329827e-01 -8.811478e-02 -1.326428e-01 -2.310563e-03
<VARIANCE> 39
 1.449064e+01 3.006501e+01 2.358637e+01 2.428140e+01 2.115400e+01 2.710890e+01 3.901212e+01 3.141192e+01 3.548907e+01 5.129400e+01 6.179494e+01 7.689639e+01 8.762646e-03 3.596421e-01 5.128329e-01 6.801364e-01 8.758152e-01 1.206738e+00 1.311930e+00 1.030620e+00 1.066342e+00 1.187731e+00 1.350126e+00 1.343833e+00 1.287294e+00 8.653613e-05 7.706756e-02 1.009033e-01 1.611577e-01 1.924050e-01 2.268068e-01 2.669887e-01 2.683425e-01 2.606394e-01 2.348125e-01 3.217082e-01 2.496493e-01 3.468567e-01 1.759725e-05
<GCONST> 6.904179e+01
<MIXTURE> 5 6.874245e-02
<MEAN> 39
 -1.951367e-01 2.982415e+00 -4.596602e-01 -1.566818e-01 -5.973449e-01 -9.627550e-01 -3.530526e-01 -3.034074e-01 -5.171651e-01 -3.769274e-01 -7.103119e-01 4.316622e-01 9.449936e-01 2.965929e-01 6.454352e-02 2.164102e-01 2.468327e-01 2.121285e-01 1.364277e-01 1.780173e-01 5.364827e-02 2.717425e-01 2.917701e-01 1.354944e-01 6.665558e-02 -5.447904e-03 -1.906505e-02 -8.071797e-02 -1.249694e-01 -9.687168e-02 -1.393741e-01 -1.108365e-01 -1.706207e-01 -1.179502e-01 -9.512807e-02 -6.230661e-02 -2.440052e-02 -6.337384e-02 -1.030928e-03
<VARIANCE> 39
 6.039006e+00 8.290644e+00 7.980371e+00 7.468129e+00 9.681436e+00 1.140199e+01 1.531904e+01 1.180774e+01 1.005235e+01 1.153173e+01 1.461132e+01 9.741410e+00 1.745686e-03 2.089431e-01 3.233788e-01 4.767326e-01 5.930019e-01 7.265258e-01 7.137102e-01 1.001913e+00 8.225161e-01 8.549581e-01 7.803802e-01 8.498565e-01 5.957156e-01 4.052552e-05 3.604785e-02 6.381802e-02 9.189129e-02 1.056838e-01 1.492733e-01 1.370983e-01 1.673566e-01 1.720207e-01 1.443730e-01 1.301720e-01 1.423320e-01 9.899909e-02 3.730628e-06
<GCONST> 3.805208e+01
<MIXTURE> 6 1.429118e-01
<MEAN> 39
 -6.706241e-01 1.493189e+01 -2.196903e+00 -1.092824e+00 -5.653728e+00 -5.297121e+00 -6.542023e+00 -4.608495e-01 -1.415534e+00 -1.961681e+00 6.322247e-01 -7.505891e-01 8.832888e-01 -4.725543e-02 -1.451685e-01 3.576631e-02 -2.362184e-01 2.056801e-01 -1.951658e-01 1.026426e-01 -1.196288e-01 2.686708e-01 8.707707e-03 1.188986e-01 -1.751590e-01 -1.340217e-03 -1.474115e-02 -1.366063e-01 3.902624e-02 -2.209904e-01 1.199802e-01 -1.118229e-01 4.740806e-02 -5.450579e-02 2.821826e-02 -3.006187e-02 -2.286509e-02 -2.345398e-02 -2.007165e-03
<VARIANCE> 39
 1.288388e+01 2.484752e+01 1.979958e+01 2.034724e+01 1.762773e+01 2.530839e+01 3.690886e+01 2.542778e+01 3.158430e+01 4.119640e+01 4.859129e+01 5.051772e+01 4.297254e-03 1.997809e-01 2.893529e-01 5.042850e-01 6.999124e-01 7.152458e-01 8.808717e-01 8.093542e-01 8.378789e-01 8.974102e-01 1.060713e+00 9.264717e-01 8.621250e-01 4.624165e-05 4.230746e-02 5.988050e-02 9.725221e-02 1.194892e-01 1.230824e-01 1.776060e-01 1.790425e-01 1.578742e-01 1.844259e-01 1.836204e-01 1.642594e-01 1.638562e-01 6.161505e-06
<GCONST> 5.409838e+01
<MIXTURE> 7 1.471748e-01
<MEAN> 39
 -6.984646e-01 1.496858e+01 -2.219219e+00 -1.102391e+00 -5.650201e+00 -5.300206e+00 -6.581745e+00 -4.741148e-01 -1.439769e+00 -1.986709e+00 6.241526e-01 -7.655144e-01 8.836603e-01 -4.963780e-02 -1.485383e-01 3.798813e-02 -2.410796e-01 2.087079e-01 -2.014322e-01 1.123329e-01 -1.204839e-01 2.717198e-01 6.965061e-03 1.195607e-01 -1.754087e-01 -1.355960e-03 -1.393139e-02 -1.370644e-01 4.552457e-02 -2.230623e-01 1.213499e-01 -1.121609e-01 5.062452e-02 -5.231025e-02 2.823510e-02 -2.766891e-02 -2.198706e-02 -2.162582e-02 -2.010123e-03
<VARIANCE> 39
 1.290057e+01 2.477573e+01 1.965847e+01 2.020970e+01 1.751055e+01 2.520695e+01 3.673284e+01 2.517599e+01 3.139121e+01 4.059852e+01 4.826778e+01 5.042596e+01 4.225995e-03 1.961240e-01 2.822126e-01 4.970495e-01 6.888146e-01 7.020049e-01 8.672380e-01 7.987049e-01 8.283456e-01 8.830781e-01 1.046554e+00 9.127569e-01 8.508154e-01 4.497897e-05 4.144296e-02 5.876918e-02 9.497358e-02 1.168268e-01 1.199400e-01 1.739843e-01 1.754660e-01 1.539683e-01 1.822182e-01 1.789770e-01 1.619025e-01 1.600516e-01 5.915622e-06
<GCONST> 5.349958e+01
<MIXTURE> 8 1.352581e-01
<MEAN> 39
 -1.003158e+00 1.659552e+00 -9.544553e-01 -6.812461e-02 -1.006757e-01 3.225919e-02 -6.402152e-01 -8.115467e-01 -4.208857e-01 -3.295244e-01 -9.559053e-01 5.326234e-01 9.724926e-01 -1.346925e-01 -4.407017e-01 -5.313745e-01 -4.848669e-01 -5.502653e-01 -5.138881e-01 -5.332726e-01 -5.889312e-01 -4.039084e-01 -4.919025e-01 -2.885232e-01 -3.537934e-01 -9.742337e-04 -5.921847e-02 -1.112135e-01 -1.090231e-01 -1.475685e-01 -1.715503e-01 -2.091086e-01 -1.373698e-01 -1.165167e-01 -1.702944e-01 -1.225727e-01 -1.099511e-01 -1.354038e-01 -7.133797e-04
<VARIANCE> 39
 3.182559e+00 3.362901e+00 5.985035e+00 6.138714e+00 6.368888e+00 6.455142e+00 8.676627e+00 5.979156e+00 7.608105e+00 8.794515e+00 1.597662e+01 9.632739e+00 8.178990e-04 1.110045e-01 2.297505e-01 2.883747e-01 4.410912e-01 4.622202e-01 5.386767e-01 6.395904e-01 7.547897e-01 6.629216e-01 4.710007e-01 1.176335e+00 6.864967e-01 3.754082e-05 1.748825e-02 3.750152e-02 5.176286e-02 6.050479e-02 9.052498e-02 8.228682e-02 8.546922e-02 1.030730e-01 7.777010e-02 9.145559e-02 1.403205e-01 8.300778e-02 3.730628e-06
<GCONST> 2.340548e+01
<MIXTURE> 9 1.350380e-01
<MEAN> 39
 -1.914543e+00 -5.086394e-01 -3.733916e+00 -2.914243e+00 -3.639809e+00 -3.597338e+00 -3.825711e+00 -4.329143e+00 -3.270868e+00 -3.483981e+00 -2.994350e+00 -1.554410e+00 9.643865e-01 9.943590e-02 -9.415489e-02 -1.371531e-01 -1.185762e-01 -1.133739e-01 -2.170839e-01 -1.046937e-01 -1.507488e-01 -2.185073e-01 -1.846006e-01 -5.289785e-02 -1.027621e-01 -2.826565e-03 1.225656e-01 2.360985e-01 2.942072e-01 2.513036e-01 3.133420e-01 2.703708e-01 3.226717e-01 3.737212e-01 2.692383e-01 2.897559e-01 1.968165e-01 1.919856e-01 -8.354849e-04
<VARIANCE> 39
 4.597178e+00 2.819097e+00 6.212978e+00 7.800506e+00 9.913802e+00 6.867812e+00 8.292509e+00 8.243902e+00 9.207700e+00 8.943141e+00 1.537542e+01 1.220798e+01 1.203083e-03 1.497596e-01 2.700799e-01 4.163089e-01 4.125166e-01 8.926789e-01 5.993454e-01 5.931477e-01 7.626451e-01 6.369619e-01 5.689835e-01 8.373543e-01 5.393567e-01 3.754082e-05 2.199516e-02 4.813829e-02 7.694860e-02 7.749749e-02 1.396041e-01 8.115459e-02 9.957808e-02 1.364452e-01 1.132441e-01 8.640569e-02 1.431504e-01 9.997130e-02 3.730628e-06
<GCONST> 2.897593e+01
<STATE> 7
<NUMMIXES> 9
<MIXTURE> 1 4.116574e-02
<MEAN> 39
 -3.896933e+00 9.644020e+00 -3.616661e+00 -6.568061e+00 -6.989198e+00 -5.682826e+00 6.778873e+00 6.479281e+00 2.105178e+01 1.760157e+01 8.863048e+00 3.711977e+00 9.738033e-01 2.829511e-01 3.097466e-01 2.608219e-01 1.543256e-01 2.073265e-01 6.675660e-02 1.222539e-01 4.760262e-01 2.769545e-01 -5.312138e-02 1.070822e-01 -7.969870e-01 9.912654e-04 -2.799669e-02 9.975313e-02 1.269726e-01 -1.970323e-02 1.498023e-01 3.087480e-02 8.895838e-02 -2.377722e-02 -1.306597e-01 1.283491e-01 1.203221e-01 2.992333e-02 -1.368486e-03
<VARIANCE> 39
 2.519950e+00 1.596910e+01 1.006516e+01 8.100878e+00 6.428015e+00 3.089124e+00 3.433391e+00 2.209809e+01 7.351439e+00 5.937798e+00 8.368979e+00 6.107763e+01 8.178990e-04 2.727526e-01 3.922740e-01 6.072597e-01 5.308706e-01 5.992305e-01 1.541962e-01 4.168034e-01 6.650192e-01 6.718974e-01 7.338351e-01 1.592290e-01 6.136340e-01 3.754082e-05 5.852645e-02 2.640598e-02 6.346220e-02 8.714476e-02 7.554264e-02 3.937478e-02 5.238714e-02 9.667321e-02 7.171673e-02 1.652834e-01 3.410340e-02 9.570599e-02 3.730628e-06
<GCONST> 2.430816e+01
<MIXTURE> 2 1.238092e-01
<MEAN> 39
 -1.752529e+00 1.638649e+01 7.566798e-01 -2.636047e+00 -4.498516e+00 -4.554638e+00 -1.036792e+01 -2.538408e-01 4.691623e-01 -4.905656e+00 5.585749e+00 -4.390410e+00 8.639877e-01 2.064331e-02 -3.237138e-01 1.622775e-01 -4.943098e-01 4.452361e-01 -3.093080e-01 1.804754e-01 -1.557354e-02 4.227455e-01 2.570253e-01 -1.766817e-01 2.552398e-01 -4.428304e-03 1.109010e-01 -2.277775e-01 1.374878e-01 -1.752362e-01 1.593737e-01 3.113841e-02 2.163341e-01 1.064363e-01 -2.306425e-02 1.533198e-01 -2.419583e-01 1.384683e-01 -3.444729e-03
<VARIANCE> 39
 9.239380e+00 2.291518e+01 1.537956e+01 1.794290e+01 1.694837e+01 1.862777e+01 2.059591e+01 2.075780e+01 2.286968e+01 2.316025e+01 1.586649e+01 1.406111e+01 4.744367e-03 3.762431e-01 4.523139e-01 4.280699e-01 1.103149e+00 5.181345e-01 7.323924e-01 8.336294e-01 8.686799e-01 1.062024e+00 8.580673e-01 9.721810e-01 7.241230e-01 1.115217e-04 5.399841e-02 8.313269e-02 1.278211e-01 1.593886e-01 1.136201e-01 1.617586e-01 1.807902e-01 1.809730e-01 1.527848e-01 1.689652e-01 1.204495e-01 1.340097e-01 1.338794e-05
<GCONST> 5.171618e+01
<MIXTURE> 3 1.240862e-01
<MEAN> 39
 -1.777133e+00 1.643270e+01 7.446354e-01 -2.714483e+00 -4.613129e+00 -4.539625e+00 -1.042666e+01 -2.575760e-01 5.727645e-01 -4.997302e+00 5.636291e+00 -4.462025e+00 8.647308e-01 2.481441e-03 -3.331672e-01 1.639589e-01 -5.313557e-01 4.635210e-01 -3.243366e-01 1.965099e-01 -2.787060e-02 4.392892e-01 2.570449e-01 -1.762691e-01 2.702151e-01 -4.013192e-03 1.063949e-01 -2.332277e-01 1.437551e-01 -1.852836e-01 1.637076e-01 2.798835e-02 2.167321e-01 1.097219e-01 -2.573903e-02 1.594107e-01 -2.478807e-01 1.478609e-01 -3.385847e-03
<VARIANCE> 39
 9.298602e+00 2.268616e+01 1.545623e+01 1.777932e+01 1.717682e+01 1.870891e+01 2.069074e+01 2.135557e+01 2.319629e+01 2.310469e+01 1.577422e+01 1.421824e+01 4.759674e-03 3.756069e-01 4.522772e-01 4.257731e-01 1.104475e+00 5.241635e-01 7.468682e-01 8.328172e-01 8.800796e-01 1.090875e+00 8.609194e-01 9.890563e-01 7.222928e-01 1.125068e-04 5.362200e-02 8.295324e-02 1.289204e-01 1.612573e-01 1.143795e-01 1.636646e-01 1.823070e-01 1.846833e-01 1.537594e-01 1.681224e-01 1.208143e-01 1.342432e-01 1.348675e-05
<GCONST> 5.194176e+01
<MIXTURE> 4 1.149723e-01
<MEAN> 39
 -2.742372e-01 1.211906e+01 -4.268057e+00 -7.590986e-01 -5.339993e+00 -6.508290e+00 -2.164023e+00 -2.280317e+00 -2.062958e+00 -1.188384e+00 -3.220923e+00 2.179640e+00 8.799374e-01 -1.032552e-02 -3.340098e-01 5.481266e-02 -4.910664e-01 4.667251e-01 -3.309725e-01 8.047558e-02 -1.407331e-01 2.120650e-01 1.261114e-02 2.774619e-01 -4.747106e-01 -6.751539e-03 9.709831e-02 -2.090874e-01 2.027564e-01 -2.411553e-01 2.052421e-01 -3.315845e-02 -9.760205e-02 -1.459615e-03 -4.925326e-02 -4.443514e-02 1.493642e-02 -1.638711e-01 -3.893032e-03
<VARIANCE> 39
 1.653680e+01 3.325238e+01 1.506281e+01 2.160033e+01 1.499594e+01 2.316148e+01 1.708116e+01 2.135501e+01 2.047104e+01 2.571407e+01 3.273265e+01 4.966766e+01 5.462170e-03 4.494549e-01 4.555950e-01 8.390825e-01 1.024418e+00 1.282252e+00 1.159394e+00 1.803861e+00 1.351240e+00 1.760960e+00 1.535509e+00 1.376362e+00 1.326932e+00 7.375212e-05 5.825806e-02 9.469127e-02 1.440707e-01 2.166203e-01 1.948922e-01 2.044268e-01 2.938720e-01 2.338813e-01 2.413381e-01 2.361915e-01 2.429030e-01 2.933359e-01 1.418211e-05
<GCONST> 6.436657e+01
<MIXTURE> 5 1.240601e-01
<MEAN> 39
 -1.779548e+00 1.643300e+01 7.385498e-01 -2.708087e+00 -4.577608e+00 -4.551596e+00 -1.040012e+01 -2.701895e-01 5.547960e-01 -4.985438e+00 5.632708e+00 -4.440074e+00 8.647019e-01 4.932506e-03 -3.332357e-01 1.650399e-01 -5.281352e-01 4.605555e-01 -3.228928e-01 1.941579e-01 -2.353681e-02 4.355365e-01 2.600080e-01 -1.810676e-01 2.693565e-01 -4.067437e-03 1.073484e-01 -2.327907e-01 1.434484e-01 -1.839844e-01 1.616414e-01 2.927830e-02 2.148813e-01 1.104841e-01 -2.502527e-02 1.587545e-01 -2.472266e-01 1.457023e-01 -3.392592e-03
<VARIANCE> 39
 9.285894e+00 2.271905e+01 1.546198e+01 1.780393e+01 1.708237e+01 1.863984e+01 2.064822e+01 2.119997e+01 2.311816e+01 2.311029e+01 1.581096e+01 1.416802e+01 4.755460e-03 3.762758e-01 4.523517e-01 4.251857e-01 1.102301e+00 5.218875e-01 7.418370e-01 8.311713e-01 8.740855e-01 1.081403e+00 8.572664e-01 9.834355e-01 7.214542e-01 1.122563e-04 5.360425e-02 8.297412e-02 1.286627e-01 1.609442e-01 1.134409e-01 1.625907e-01 1.813779e-01 1.833061e-01 1.531512e-01 1.674211e-01 1.202928e-01 1.337640e-01 1.343710e-05
<GCONST> 5.182522e+01
<MIXTURE> 6 1.146020e-01
<MEAN> 39
 -8.304157e-01 1.258961e+01 -5.002525e+00 -9.574420e-01 -5.706355e+00 -6.297553e+00 -1.493837e+00 -2.474935e+00 -9.733567e-01 1.208499e-01 -3.433973e-01 5.274223e+00 8.914821e-01 -2.134279e-01 -4.282197e-01 4.159395e-02 -7.786579e-01 4.570529e-01 -5.186664e-01 8.324661e-02 -2.914813e-01 7.724912e-02 -7.014745e-02 1.651021e-01 -4.114707e-01 -4.831547e-03 8.029807e-02 -2.714215e-01 1.923249e-01 -3.353787e-01 1.970290e-01 -1.436465e-01 -1.630737e-01 5.057501e-03 -1.282620e-01 -1.108654e-01 -1.531219e-01 -3.417073e-01 -4.354105e-03
<VARIANCE> 39
 1.649055e+01 3.031276e+01 1.940006e+01 2.276056e+01 2.129381e+01 2.590911e+01 1.763832e+01 1.900350e+01 1.991479e+01 3.360675e+01 6.238185e+01 8.525667e+01 5.548962e-03 4.991685e-01 5.326771e-01 7.926537e-01 1.066218e+00 1.329439e+00 1.258360e+00 1.755803e+00 1.243072e+00 1.603621e+00 1.561783e+00 1.582000e+00 1.575744e+00 7.275245e-05 6.102100e-02 1.048644e-01 1.445910e-01 2.303193e-01 2.235609e-01 2.537576e-01 2.810182e-01 2.477437e-01 2.195855e-01 2.909238e-01 3.199089e-01 4.057427e-01 1.551541e-05
<GCONST> 6.825176e+01
<MIXTURE> 7 1.098123e-01
<MEAN> 39
 -4.058660e-01 1.215315e+01 -4.221549e+00 -1.271898e+00 -5.488275e+00 -6.587388e+00 -2.210511e+00 -2.409549e+00 -1.717865e+00 -1.004662e+00 -2.318205e+00 2.314085e+00 8.807557e-01 -2.782640e-02 -3.549596e-01 4.854845e-02 -4.840644e-01 4.549280e-01 -3.438975e-01 4.114038e-03 -1.959175e-01 1.458514e-01 -1.240077e-02 2.049021e-01 -4.218406e-01 -6.459588e-03 1.067193e-01 -2.071253e-01 1.812034e-01 -2.085491e-01 2.183284e-01 -2.297091e-02 -1.247631e-01 7.489767e-05 -4.741763e-02 -3.953124e-02 -8.322253e-03 -1.641020e-01 -4.064553e-03
<VARIANCE> 39
 1.625235e+01 3.384073e+01 1.734958e+01 2.417938e+01 1.917892e+01 2.548210e+01 1.948284e+01 2.141970e+01 2.168195e+01 3.093255e+01 4.164722e+01 6.722938e+01 5.686386e-03 4.592712e-01 4.664607e-01 8.848833e-01 1.120915e+00 1.330370e+00 1.207062e+00 1.760662e+00 1.393609e+00 1.787310e+00 1.675478e+00 1.501094e+00 1.436491e+00 7.681517e-05 6.068790e-02 9.134003e-02 1.395020e-01 2.246027e-01 2.141129e-01 2.167819e-01 3.044702e-01 2.477341e-01 2.348514e-01 2.796590e-01 2.784981e-01 3.667554e-01 1.655032e-05
<GCONST> 6.741479e+01
<MIXTURE> 8 1.262647e-01
<MEAN> 39
 -7.385077e-01 1.287497e+01 -7.311383e+00 -2.933886e+00 -8.943477e+00 -1.095727e+01 -6.405317e+00 -4.375576e+00 -5.958241e+00 -2.303970e+00 -7.822320e+00 4.202817e-02 8.875976e-01 -5.557349e-01 -4.943496e-01 -5.105520e-01 -1.184072e+00 -4.370591e-01 -1.057694e+00 -9.104150e-02 -8.892953e-01 -1.359864e-01 -9.805344e-01 -1.408228e-01 -8.834373e-01 -1.995991e-03 1.532780e-01 5.179287e-02 4.597289e-01 -7.319074e-03 5.608884e-01 2.891926e-01 4.877623e-01 4.129991e-01 3.853879e-01 1.381938e-01 4.776159e-01 6.492717e-02 -2.964412e-03
<VARIANCE> 39
 9.279220e+00 3.084251e+01 1.477310e+01 1.783097e+01 1.238373e+01 2.098234e+01 1.989072e+01 3.714751e+01 2.068793e+01 1.990462e+01 2.495936e+01 3.399441e+01 5.013329e-03 3.045792e-01 3.651671e-01 5.175257e-01 7.396256e-01 7.396634e-01 1.127040e+00 9.917794e-01 8.614986e-01 9.914476e-01 1.088037e+00 9.618098e-01 1.127854e+00 5.907970e-05 4.224371e-02 6.795954e-02 1.134427e-01 1.751050e-01 1.362094e-01 1.717855e-01 1.576508e-01 1.859871e-01 1.543441e-01 2.486777e-01 1.871019e-01 1.832517e-01 7.519563e-06
<GCONST> 5.397817e+01
<MIXTURE> 9 1.212274e-01
<MEAN> 39
 -1.764874e-01 8.904234e+00 -1.080587e+00 4.793840e-01 -3.697899e+00 -2.353688e+00 1.139356e+00 3.122244e+00 6.274884e+00 8.649916e+00 6.376070e+00 4.219436e+00 8.913037e-01 1.054003e-01 -7.435505e-02 -2.522179e-01 -2.883553e-01 2.772803e-01 -1.857740e-01 -7.337659e-02 -2.032578e-02 2.421648e-01 4.937191e-01 -3.385539e-01 -1.486301e-01 -5.092568e-03 -6.176636e-02 -1.237928e-01 -2.960279e-01 -1.791671e-01 -5.627864e-02 -2.076185e-01 -1.371224e-01 -2.786628e-01 -2.162797e-02 -8.814667e-02 -1.529780e-01 -8.169879e-03 -2.163165e-03
<VARIANCE> 39
 2.239654e+01 2.772755e+01 1.148452e+01 9.674546e+00 1.686966e+01 1.776970e+01 2.422774e+01 2.579349e+01 6.211267e+01 5.986436e+01 6.381287e+01 5.753650e+01 8.613936e-03 7.258524e-01 7.328994e-01 1.095662e+00 8.799610e-01 1.120375e+00 1.211946e+00 1.084174e+00 1.103041e+00 1.482782e+00 8.301118e-01 1.932877e+00 1.301204e+00 7.930421e-05 1.281487e-01 2.126175e-01 1.957084e-01 1.712994e-01 2.017306e-01 2.735926e-01 2.473133e-01 2.119045e-01 2.757581e-01 2.968614e-01 3.388832e-01 2.991096e-01 1.342407e-05
<GCONST> 6.928544e+01
<STATE> 8
<NUMMIXES> 9
<MIXTURE> 1 7.651672e-03
<MEAN> 39
 -8.252272e+00 3.486199e+00 -9.200541e+00 -1.221291e+00 -5.677544e+00 -6.701386e+00 -5.461612e+00 -7.122236e+00 5.642235e+00 7.112660e+00 1.611882e+01 2.106157e+01 9.612963e-01 6.284202e-01 -1.642684e-01 -1.345210e-01 2.751408e-01 9.353242e-01 4.305218e-01 -4.155764e-01 -7.318578e-01 2.218335e+00 2.339859e+00 3.907462e-01 -1.160659e+00 2.024646e-03 4.039720e-01 4.731253e-01 5.854914e-01 3.609892e-01 8.168203e-01 5.027615e-01 3.908262e-01 3.716107e-01 2.267657e-01 -3.918945e-02 -3.035710e-01 -1.307061e-01 5.498088e-04
<VARIANCE> 39
 2.372135e+00 2.747047e+00 1.557578e+00 5.524556e+00 4.679420e+00 4.179595e+00 1.743457e+01 1.091818e+01 1.683862e+01 1.010659e+01 1.265198e+01 1.446693e+01 1.543185e-03 1.256584e+00 6.070011e-01 5.453339e-01 9.922819e-01 1.311208e+00 1.446293e+00 4.934013e-01 8.665814e-01 4.152495e-01 8.036134e-01 7.170578e-01 1.979720e+00 3.754082e-05 3.242341e-02 2.567361e-02 4.969156e-02 5.554529e-02 7.372787e-02 1.491954e-01 2.322523e-02 2.578676e-01 1.570075e-01 1.928725e-01 3.275289e-02 2.916533e-01 3.730628e-06
<GCONST> 3.250851e+01
<MIXTURE> 2 1.258191e-01
<MEAN> 39
 -2.296661e+00 1.444186e+01 -8.077455e-02 -4.301531e+00 -4.609974e+00 -6.366929e+00 -8.794669e+00 -6.032030e-01 -4.207436e-01 -3.765975e+00 2.910507e+00 -3.728419e+00 8.722707e-01 1.691327e-01 -6.822656e-01 5.014138e-01 -9.440013e-01 7.496856e-01 -1.076424e-01 5.391579e-01 1.165574e-01 4.124160e-01 2.835203e-01 -2.240357e-01 1.597087e-01 -1.068407e-02 2.692013e-01 -2.578633e-01 2.586288e-01 1.015844e-01 1.919258e-01 3.869582e-01 2.983834e-01 1.728428e-01 -4.493890e-02 1.337849e-01 -2.270555e-01 1.032788e-01 -7.100954e-03
<VARIANCE> 39
 8.788095e+00 3.097925e+01 1.760673e+01 1.893039e+01 1.614605e+01 2.321673e+01 2.625778e+01 2.332850e+01 3.154586e+01 2.572873e+01 3.051758e+01 2.283119e+01 5.209776e-03 4.228447e-01 6.221074e-01 8.577035e-01 1.391036e+00 8.884443e-01 1.130746e+00 1.423162e+00 1.350444e+00 1.453978e+00 1.717314e+00 1.446526e+00 1.788056e+00 1.641145e-04 5.384731e-02 1.248269e-01 1.630783e-01 1.882444e-01 2.024542e-01 1.667129e-01 2.808926e-01 2.523751e-01 2.815041e-01 2.080439e-01 2.606824e-01 2.161270e-01 2.870885e-05
<GCONST> 6.538133e+01
<MIXTURE> 3 1.174517e-01
<MEAN> 39
 -2.415113e+00 1.400833e+01 -5.980480e-01 -4.481656e+00 -4.787632e+00 -6.705689e+00 -8.425833e+00 -7.212260e-01 -9.177288e-01 -3.530725e+00 2.098816e+00 -3.763035e+00 8.765544e-01 1.546301e-01 -6.623541e-01 5.147931e-01 -9.331360e-01 7.664256e-01 -1.136010e-01 4.746037e-01 9.179463e-02 4.166831e-01 2.042949e-01 -1.111475e-01 5.109195e-02 -1.087365e-02 2.831549e-01 -2.249379e-01 2.877152e-01 1.240033e-01 2.288601e-01 4.131468e-01 2.832612e-01 1.766753e-01 -1.932050e-02 1.311285e-01 -1.706830e-01 1.210022e-01 -7.455421e-03
<VARIANCE> 39
 9.087193e+00 3.178860e+01 1.853597e+01 1.935548e+01 1.581536e+01 2.457118e+01 2.620586e+01 2.406019e+01 3.213285e+01 2.611976e+01 3.403429e+01 2.605729e+01 4.981509e-03 4.123994e-01 6.037035e-01 8.770933e-01 1.341977e+00 9.121755e-01 1.154106e+00 1.513363e+00 1.334849e+00 1.510853e+00 1.778472e+00 1.535311e+00 1.909897e+00 1.587301e-04 5.680363e-02 1.272943e-01 1.650538e-01 1.844835e-01 2.068521e-01 1.823581e-01 2.820913e-01 2.625389e-01 2.953334e-01 2.100862e-01 2.825735e-01 2.357842e-01 2.901455e-05
<GCONST> 6.645844e+01
<MIXTURE> 4 1.023904e-01
<MEAN> 39
 4.649007e+00 1.042961e+01 -4.622063e+00 1.680488e+00 -1.467087e+00 -4.608344e+00 -4.300903e+00 -1.846084e+00 1.309762e+00 8.555991e-01 -1.905512e+00 6.563731e-01 8.338533e-01 6.063836e-01 -4.524041e-01 1.897900e-01 2.123058e-01 3.730114e-01 -3.082712e-01 -3.082935e-01 6.115881e-02 1.470681e-01 1.552396e-01 -4.008557e-02 1.403302e-01 -9.935591e-03 -1.042957e-01 -9.652010e-02 2.487464e-01 -8.261298e-02 -1.254517e-01 -4.188476e-02 6.142361e-02 -5.227907e-02 -2.492438e-01 -2.438579e-01 3.888426e-02 -4.205526e-02 -3.197111e-03
<VARIANCE> 39
 1.169813e+01 4.087768e+01 3.122049e+01 1.462324e+01 2.025745e+01 2.515836e+01 2.418255e+01 3.007703e+01 3.198908e+01 4.368022e+01 4.271445e+01 3.231473e+01 6.056136e-03 4.615541e-01 7.014093e-01 1.550641e+00 1.340203e+00 1.498593e+00 1.864395e+00 1.709210e+00 1.985338e+00 1.885910e+00 2.453678e+00 2.158009e+00 1.713349e+00 1.261336e-04 5.975175e-02 1.110023e-01 2.186503e-01 1.901537e-01 1.663534e-01 2.664402e-01 2.340528e-01 2.792675e-01 2.762667e-01 3.589125e-01 2.680057e-01 2.873420e-01 1.182682e-05
<GCONST> 7.161407e+01
<MIXTURE> 5 1.146103e-01
<MEAN> 39
 -2.528931e+00 1.345595e+01 -1.192702e+00 -4.609854e+00 -4.981220e+00 -7.087604e+00 -7.995898e+00 -8.395063e-01 -1.567131e+00 -3.189206e+00 1.097274e+00 -3.717209e+00 8.810397e-01 1.530349e-01 -6.303493e-01 5.168136e-01 -9.008646e-01 7.701607e-01 -1.065673e-01 4.091024e-01 6.861445e-02 4.032552e-01 1.161602e-01 2.076250e-02 -9.543001e-02 -1.132514e-02 3.002969e-01 -1.818121e-01 3.155500e-01 1.524951e-01 2.744592e-01 4.420218e-01 2.712426e-01 1.745763e-01 1.423803e-02 1.210374e-01 -9.886151e-02 1.371179e-01 -7.849583e-03
<VARIANCE> 39
 9.390964e+00 3.259571e+01 1.917466e+01 1.977659e+01 1.528811e+01 2.566336e+01 2.588869e+01 2.449480e+01 3.202114e+01 2.624076e+01 3.708083e+01 2.966643e+01 4.803590e-03 4.054050e-01 5.780195e-01 9.034241e-01 1.268322e+00 9.224882e-01 1.174069e+00 1.593157e+00 1.291322e+00 1.575714e+00 1.802688e+00 1.614494e+00 2.012501e+00 1.517583e-04 6.002833e-02 1.268611e-01 1.673430e-01 1.772946e-01 2.093461e-01 1.996268e-01 2.853031e-01 2.733503e-01 3.078856e-01 2.113612e-01 3.031252e-01 2.560164e-01 2.887989e-05
<GCONST> 6.721530e+01
<MIXTURE> 6 1.025225e-01
<MEAN> 39
 4.688317e+00 1.047818e+01 -4.770224e+00 1.728636e+00 -1.462328e+00 -4.597374e+00 -4.357028e+00 -1.897156e+00 1.462458e+00 9.184194e-01 -1.911654e+00 6.027636e-01 8.335992e-01 6.086383e-01 -4.545724e-01 1.806243e-01 2.143466e-01 3.752371e-01 -3.192457e-01 -3.048640e-01 7.388375e-02 1.519602e-01 1.428078e-01 -4.450857e-02 1.463259e-01 -9.708775e-03 -1.058620e-01 -9.751095e-02 2.534765e-01 -8.957385e-02 -1.292337e-01 -4.701800e-02 6.520544e-02 -5.127001e-02 -2.589954e-01 -2.510587e-01 4.080760e-02 -3.458964e-02 -3.165441e-03
<VARIANCE> 39
 1.185573e+01 4.087421e+01 3.183060e+01 1.462755e+01 2.040186e+01 2.528080e+01 2.415459e+01 3.104433e+01 3.240396e+01 4.453531e+01 4.372688e+01 3.400124e+01 6.147927e-03 4.601865e-01 7.039242e-01 1.564719e+00 1.350589e+00 1.512441e+00 1.893856e+00 1.702478e+00 1.996309e+00 1.894242e+00 2.468251e+00 2.160802e+00 1.704815e+00 1.274619e-04 5.983309e-02 1.097908e-01 2.243775e-01 1.936289e-01 1.691509e-01 2.720369e-01 2.345561e-01 2.808723e-01 2.761880e-01 3.632926e-01 2.671537e-01 2.917102e-01 1.177716e-05
<GCONST> 7.197124e+01
<MIXTURE> 7 1.023860e-01
<MEAN> 39
 4.518898e+00 9.920775e+00 -4.312637e+00 1.576407e+00 -1.473563e+00 -4.431639e+00 -4.172560e+00 -1.593962e+00 1.184862e+00 9.612833e-01 -1.493797e+00 9.584926e-01 8.400738e-01 6.151793e-01 -4.351804e-01 1.563978e-01 2.399466e-01 3.634053e-01 -2.888651e-01 -2.989094e-01 4.546841e-02 1.589971e-01 1.954027e-01 -9.687116e-03 1.420239e-01 -1.015839e-02 -1.059589e-01 -9.077386e-02 2.342302e-01 -7.247017e-02 -1.184909e-01 -3.635838e-02 6.157912e-02 -6.362962e-02 -2.308654e-01 -2.446658e-01 2.457680e-02 -5.518032e-02 -3.288228e-03
<VARIANCE> 39
 1.155465e+01 4.183714e+01 3.013992e+01 1.409171e+01 1.978002e+01 2.483959e+01 2.419928e+01 2.603798e+01 3.233963e+01 4.409230e+01 4.351398e+01 3.377563e+01 5.792883e-03 4.759565e-01 7.154489e-01 1.577558e+00 1.299198e+00 1.518544e+00 1.884062e+00 1.728125e+00 1.965690e+00 1.840995e+00 2.553983e+00 2.204374e+00 1.798503e+00 1.252494e-04 6.159531e-02 1.155319e-01 2.365037e-01 1.831992e-01 1.705621e-01 2.639048e-01 2.380669e-01 2.740385e-01 2.786337e-01 3.747074e-01 2.755169e-01 3.088713e-01 1.214820e-05
<GCONST> 7.185476e+01
<MIXTURE> 8 1.480953e-01
<MEAN> 39
 -2.691262e+00 1.198210e+01 -5.668917e+00 -2.161914e+00 -4.379111e+00 -6.868858e+00 1.235730e+00 -2.458032e+00 2.760401e+00 3.207057e+00 4.535744e+00 8.774646e+00 9.111009e-01 -4.190252e-01 -9.349543e-01 3.799795e-01 -1.934114e+00 1.018382e+00 -1.195034e+00 2.957976e-01 -7.933471e-02 -3.677706e-01 1.427693e-01 -2.042108e-01 -9.170689e-01 -7.501408e-03 2.712135e-01 -4.006251e-01 4.441378e-01 -1.885488e-01 5.492574e-02 1.587541e-01 -4.038288e-01 2.130900e-01 -3.450516e-01 -2.018239e-01 -3.380406e-01 -5.079873e-01 -7.164366e-03
<VARIANCE> 39
 1.666242e+01 2.345339e+01 2.239844e+01 1.467944e+01 2.674066e+01 2.437702e+01 2.037556e+01 2.945264e+01 4.964112e+01 7.201133e+01 7.047582e+01 8.931998e+01 4.457617e-03 6.783132e-01 7.261397e-01 1.214058e+00 1.557147e+00 2.353020e+00 1.724925e+00 2.094579e+00 1.855692e+00 1.229492e+00 1.477505e+00 1.997390e+00 1.818770e+00 8.576764e-05 1.013944e-01 1.772640e-01 3.008476e-01 2.256406e-01 3.675114e-01 2.079813e-01 3.493242e-01 3.307892e-01 2.589742e-01 3.568494e-01 3.273350e-01 4.985993e-01 2.920068e-05
<GCONST> 7.697035e+01
<MIXTURE> 9 1.790723e-01
<MEAN> 39
 5.472680e-01 1.226123e+01 -7.833190e+00 -2.594721e+00 -9.301962e+00 -9.610991e+00 -4.338346e+00 -6.329109e+00 -4.163829e+00 -5.531960e+00 -7.142629e+00 -4.314045e-01 8.330823e-01 1.800612e-01 -7.320358e-02 3.873673e-01 -3.690327e-01 7.480109e-01 3.054276e-02 6.615841e-01 3.343279e-01 5.438783e-01 8.104876e-02 1.001538e+00 1.193845e-01 -8.223434e-03 2.613731e-01 4.478377e-02 5.152642e-01 1.696226e-01 5.997950e-01 3.847110e-01 2.956596e-01 5.304922e-01 4.144202e-01 4.624091e-01 4.250601e-01 1.728346e-01 -3.025944e-03
<VARIANCE> 39
 1.984487e+01 3.577611e+01 2.391950e+01 2.083480e+01 1.350048e+01 3.165179e+01 2.284316e+01 2.171769e+01 2.332052e+01 2.324572e+01 2.881710e+01 3.156767e+01 1.011557e-02 8.989050e-01 5.205075e-01 1.200208e+00 1.788927e+00 1.235651e+00 2.147670e+00 2.572540e+00 2.058515e+00 1.772206e+00 1.999620e+00 1.959173e+00 1.795746e+00 1.340637e-04 9.692837e-02 1.234834e-01 2.374491e-01 2.365486e-01 2.118077e-01 2.951418e-01 3.744991e-01 3.281530e-01 2.822292e-01 4.267916e-01 3.851399e-01 3.274916e-01 2.084359e-05
<GCONST> 7.434724e+01
<STATE> 9
<NUMMIXES> 9
<MIXTURE> 1 3.102829e-02
<MEAN> 39
 -4.099524e+00 1.622713e+01 -6.425962e+00 -6.684329e+00 -5.446542e+00 -9.938286e+00 2.289996e+00 1.020250e-01 1.590854e+00 -2.430127e+00 -9.172983e-01 2.460104e+00 8.155560e-01 1.216045e-01 -1.086413e+00 1.580010e-01 -2.775752e+00 2.179477e+00 7.685909e-01 3.296057e+00 2.790071e+00 2.785579e+00 1.056624e+00 1.421914e+00 -1.634594e+00 -2.411406e-02 3.070416e-01 -7.343352e-01 4.191035e-01 -2.007389e-01 3.892372e-01 1.086401e+00 2.163298e-01 5.184020e-01 -1.381898e-01 -7.197413e-02 -2.150017e-01 -2.814620e-01 -4.659642e-03
<VARIANCE> 39
 6.234824e+00 3.571700e+01 8.299183e+00 1.539401e+01 1.462445e+01 1.034974e+01 3.472368e+01 1.428841e+01 1.626908e+01 7.982300e+00 1.076476e+01 1.228917e+01 2.508477e-03 1.105974e+00 1.584529e+00 1.261253e+00 5.772110e-01 1.111753e+00 9.500332e-01 2.530247e+00 2.865691e+00 1.583874e+00 3.792362e+00 2.188415e+00 1.889154e+00 1.566952e-04 1.140910e-01 2.820340e-01 8.976461e-02 1.827324e-01 4.231609e-01 1.570416e-01 8.838287e-01 3.877764e-01 5.359583e-01 1.987014e-01 3.214079e-01 2.541659e-01 2.229533e-05
<GCONST> 6.686898e+01
<MIXTURE> 2 1.440668e-01
<MEAN> 39
 1.867855e-01 1.113839e+01 -4.540582e-01 -2.308285e+00 -4.134948e+00 -5.245613e+00 -6.005496e+00 -1.232267e+00 -1.959298e+00 -2.831201e+00 2.529007e-02 -1.404470e+00 8.328748e-01 7.599104e-01 -3.230413e-01 6.659144e-01 2.113452e-01 8.813317e-01 5.629451e-01 6.092715e-01 7.593825e-03 2.033141e-01 3.705314e-01 1.029039e-01 -7.763547e-02 -2.555124e-02 1.050367e-01 -3.202050e-02 1.879059e-01 4.155374e-01 2.750992e-01 3.075035e-01 2.602646e-01 -2.324576e-02 2.638097e-02 8.668814e-02 -3.907980e-02 5.344913e-02 -9.190124e-03
<VARIANCE> 39
 1.938701e+01 3.525108e+01 1.990022e+01 2.188117e+01 1.588102e+01 1.884919e+01 3.323031e+01 2.009480e+01 2.834521e+01 2.585262e+01 3.552082e+01 3.028540e+01 6.472390e-03 7.295471e-01 7.847626e-01 1.341496e+00 9.463561e-01 1.516370e+00 1.352304e+00 2.461637e+00 2.002700e+00 2.031084e+00 1.911870e+00 2.468173e+00 2.500704e+00 1.519613e-04 1.052952e-01 9.414021e-02 1.705674e-01 1.968502e-01 1.834102e-01 2.149050e-01 2.904932e-01 2.812071e-01 3.350376e-01 2.502380e-01 3.265617e-01 2.943546e-01 4.306324e-05
<GCONST> 7.278273e+01
<MIXTURE> 3 1.431071e-01
<MEAN> 39
 -2.040156e-01 1.150376e+01 -8.765150e-02 -2.799306e+00 -4.254322e+00 -5.238324e+00 -6.568742e+00 -1.162872e+00 -1.597120e+00 -3.204069e+00 5.756197e-01 -1.907807e+00 8.350341e-01 7.795780e-01 -3.854074e-01 6.951228e-01 1.778815e-01 9.162875e-01 6.064231e-01 7.012649e-01 4.905501e-02 2.314015e-01 3.745515e-01 -1.901469e-03 -9.446986e-03 -2.589841e-02 1.261895e-01 -3.182747e-02 1.735944e-01 4.561153e-01 2.871436e-01 3.344699e-01 2.881233e-01 -4.635599e-03 -8.956986e-03 1.036836e-01 -6.118842e-02 6.866426e-02 -9.639570e-03
<VARIANCE> 39
 1.827129e+01 3.520245e+01 2.044580e+01 2.422739e+01 1.589130e+01 1.888233e+01 3.371191e+01 1.990965e+01 3.057101e+01 2.654082e+01 3.456950e+01 3.045734e+01 6.302727e-03 7.015325e-01 8.185843e-01 1.380506e+00 9.437038e-01 1.534151e+00 1.324162e+00 2.416302e+00 1.977872e+00 2.004339e+00 1.945370e+00 2.374336e+00 2.580851e+00 1.500126e-04 1.011613e-01 9.458464e-02 1.734620e-01 2.183736e-01 1.889014e-01 2.133268e-01 2.875273e-01 2.765230e-01 3.583273e-01 2.599552e-01 3.165333e-01 3.015323e-01 4.545541e-05
<GCONST> 7.311736e+01
<MIXTURE> 4 8.461512e-02
<MEAN> 39
 2.605010e+00 9.581621e+00 -3.137544e+00 -9.696146e-01 4.784061e-01 -6.634965e+00 -2.009015e+00 -6.208887e-02 1.927132e+00 1.442855e+00 -1.511287e+00 -2.194050e-01 8.332821e-01 3.419898e-01 -9.263835e-01 1.058661e+00 -6.108997e-01 6.575863e-01 8.764856e-02 2.366200e-01 1.834362e-01 -2.886150e-01 -3.496006e-01 4.497945e-02 -2.766454e-01 -1.310850e-02 -8.865734e-02 -1.650051e-01 4.635447e-01 1.943275e-01 -1.963647e-01 4.742442e-01 -2.239907e-01 -6.994052e-02 -3.361517e-01 -2.488068e-01 2.252592e-02 -1.202482e-01 -6.692518e-03
<VARIANCE> 39
 2.223592e+01 5.751289e+01 2.089839e+01 4.157504e+01 2.300706e+01 4.490578e+01 3.135420e+01 3.571410e+01 2.498232e+01 2.808281e+01 4.585704e+01 3.378254e+01 1.070465e-02 5.132206e-01 6.506186e-01 1.480248e+00 2.528616e+00 2.129573e+00 1.243910e+00 2.509610e+00 1.516704e+00 1.469469e+00 2.536445e+00 2.844580e+00 1.621261e+00 2.492305e-04 1.349722e-01 1.687940e-01 3.008151e-01 3.084486e-01 2.572199e-01 4.521525e-01 3.768772e-01 5.250709e-01 2.786593e-01 4.131147e-01 3.813647e-01 3.045911e-01 3.608123e-05
<GCONST> 8.152694e+01
<MIXTURE> 5 1.434530e-01
<MEAN> 39
 1.144511e-01 1.121354e+01 -3.769335e-01 -2.411140e+00 -4.154116e+00 -5.241017e+00 -6.139103e+00 -1.223332e+00 -1.887873e+00 -2.909191e+00 1.587615e-01 -1.503570e+00 8.333095e-01 7.649258e-01 -3.379941e-01 6.711640e-01 2.048349e-01 8.883554e-01 5.711579e-01 6.276904e-01 1.673943e-02 2.102904e-01 3.719444e-01 7.566211e-02 -6.524310e-02 -2.560633e-02 1.090742e-01 -3.167776e-02 1.851979e-01 4.244727e-01 2.772948e-01 3.134479e-01 2.670100e-01 -1.810571e-02 2.003445e-02 9.027761e-02 -4.488664e-02 5.496802e-02 -9.282920e-03
<VARIANCE> 39
 1.915460e+01 3.532970e+01 2.007588e+01 2.240819e+01 1.590598e+01 1.888765e+01 3.333339e+01 2.013800e+01 2.892952e+01 2.610094e+01 3.531313e+01 3.031582e+01 6.439147e-03 7.217022e-01 7.944648e-01 1.353471e+00 9.479001e-01 1.520991e+00 1.344054e+00 2.459695e+00 2.002751e+00 2.028709e+00 1.917978e+00 2.449144e+00 2.521930e+00 1.513311e-04 1.044092e-01 9.441513e-02 1.718692e-01 2.016952e-01 1.848734e-01 2.147440e-01 2.893785e-01 2.809989e-01 3.406962e-01 2.530006e-01 3.242886e-01 2.951590e-01 4.360579e-05
<GCONST> 7.290598e+01
<MIXTURE> 6 5.712312e-02
<MEAN> 39
 9.556847e-01 1.158345e+01 -2.046951e+00 -3.701449e+00 -2.998640e-01 -7.242622e+00 -2.753035e+00 -2.554181e-01 1.627877e+00 4.750266e-01 -4.153396e-01 -8.340320e-01 8.568583e-01 2.121604e-01 -1.097579e+00 1.085148e+00 -1.090959e+00 7.528306e-01 1.283063e-01 2.479905e-01 2.094839e-01 -1.801144e-01 -4.774766e-01 -5.633926e-02 -3.325883e-01 -1.294804e-02 3.265138e-03 -2.552520e-01 3.534792e-01 3.188820e-01 -2.439752e-01 5.031356e-01 -2.406477e-01 -2.863021e-02 -3.299507e-01 -2.556823e-01 -6.471550e-02 -6.327730e-02 -6.697552e-03
<VARIANCE> 39
 2.028399e+01 4.367329e+01 1.858949e+01 3.279832e+01 1.578234e+01 3.545391e+01 3.693145e+01 3.330320e+01 2.540997e+01 2.575701e+01 3.953781e+01 3.252297e+01 6.992132e-03 4.153573e-01 8.095477e-01 1.225093e+00 2.289997e+00 2.197890e+00 1.362229e+00 2.696943e+00 1.769878e+00 1.670945e+00 2.395448e+00 2.608511e+00 1.451986e+00 1.478589e-04 1.092844e-01 1.656459e-01 2.120689e-01 2.907991e-01 2.651249e-01 3.428905e-01 4.444211e-01 5.149918e-01 2.661093e-01 4.118480e-01 3.752759e-01 2.869413e-01 3.526486e-05
<GCONST> 7.813712e+01
<MIXTURE> 7 1.337955e-01
<MEAN> 39
 -2.485618e+00 1.475190e+01 8.668541e-01 -7.711650e+00 -2.323136e+00 -7.787587e+00 -8.251195e+00 4.128313e-01 2.560993e+00 -2.155870e+00 4.089222e+00 -2.343683e+00 8.840290e-01 9.952068e-02 -1.946490e+00 1.134013e+00 -2.256068e+00 6.890875e-01 4.651960e-01 9.826508e-01 9.205841e-01 3.334473e-01 9.664550e-01 -1.023199e+00 8.192279e-01 -4.666135e-03 2.668627e-01 -5.510132e-01 1.968705e-01 3.833010e-01 -3.020876e-01 8.655824e-01 2.414115e-01 2.054605e-01 -2.627983e-01 -9.059419e-02 -3.936931e-01 -6.895886e-02 -7.436705e-03
<VARIANCE> 39
 9.906042e+00 2.674738e+01 1.406047e+01 1.510164e+01 1.337701e+01 1.859743e+01 1.917072e+01 2.668428e+01 2.781603e+01 2.121753e+01 1.976340e+01 1.492476e+01 4.837367e-03 4.226462e-01 6.249604e-01 1.515683e+00 1.252265e+00 1.124449e+00 1.488148e+00 1.873990e+00 1.967700e+00 2.430755e+00 1.681450e+00 1.779768e+00 1.086731e+00 2.155403e-04 8.386766e-02 1.516975e-01 9.971783e-02 2.591006e-01 1.803339e-01 2.124586e-01 2.840444e-01 3.190362e-01 2.785462e-01 2.827068e-01 3.232670e-01 2.198147e-01 4.908993e-05
<GCONST> 6.706834e+01
<MIXTURE> 8 1.102836e-01
<MEAN> 39
 -3.830968e+00 1.046158e+01 -6.270449e+00 -4.841420e+00 -5.343693e+00 -8.327748e+00 7.995951e-01 -8.530710e-01 5.982703e+00 1.005389e+01 1.087875e+01 1.410639e+01 8.937026e-01 4.338279e-01 -8.088591e-01 1.000681e+00 -7.501686e-01 9.564791e-01 -1.827651e-01 -2.579075e-01 2.670565e-01 -1.092303e+00 -9.262977e-01 -1.804744e+00 -2.023220e+00 -2.470152e-02 5.159186e-01 -1.371069e-01 4.915026e-01 4.376568e-01 1.532877e-01 6.404366e-01 -8.190870e-02 5.516176e-02 -3.888815e-01 -8.217895e-01 -6.485611e-01 -8.317314e-01 -1.308043e-02
<VARIANCE> 39
 2.084546e+01 1.936637e+01 2.720965e+01 1.173861e+01 2.659014e+01 2.238362e+01 3.164923e+01 3.956132e+01 6.214278e+01 6.681071e+01 3.608720e+01 7.015897e+01 4.823986e-03 1.425889e+00 1.444259e+00 1.995901e+00 2.041124e+00 2.573926e+00 1.234991e+00 2.038953e+00 2.037140e+00 2.381675e+00 4.379405e+00 3.975923e+00 4.169447e+00 2.714033e-04 1.734758e-01 3.020051e-01 3.888108e-01 2.579597e-01 5.330689e-01 4.139373e-01 5.600390e-01 3.964763e-01 4.334028e-01 5.965449e-01 3.618235e-01 5.800697e-01 1.006578e-04
<GCONST> 8.906557e+01
<MIXTURE> 9 1.525273e-01
<MEAN> 39
 -2.664288e+00 1.186900e+01 -5.406127e+00 -7.273734e+00 -4.351799e+00 -1.345039e+01 -1.470721e+00 -5.297757e+00 -3.526487e+00 -3.602148e+00 -5.550427e+00 -2.491356e+00 8.795566e-01 3.671866e-01 -1.165779e+00 2.086404e+00 -1.594739e+00 1.925206e+00 1.643047e-01 3.892308e-01 1.254622e+00 4.015094e-02 3.275658e-01 8.770427e-01 -6.804796e-01 -1.466566e-02 4.147595e-01 -2.159258e-01 7.002795e-01 7.580031e-01 7.119998e-02 1.151576e+00 -2.192687e-01 5.322334e-01 8.350477e-02 3.070230e-01 3.105845e-01 3.521839e-01 -1.003891e-02
<VARIANCE> 39
 1.371548e+01 2.544135e+01 1.330087e+01 1.971115e+01 1.798016e+01 2.013109e+01 2.771675e+01 2.850256e+01 1.884925e+01 1.973864e+01 2.388124e+01 4.387010e+01 4.661501e-03 5.606021e-01 1.127506e+00 1.614783e+00 2.816040e+00 1.995486e+00 2.351514e+00 2.358206e+00 2.527687e+00 2.389287e+00 2.205861e+00 1.957366e+00 2.573032e+00 1.524951e-04 1.456144e-01 2.330961e-01 2.151524e-01 3.038228e-01 5.657572e-01 2.613811e-01 4.224535e-01 3.502896e-01 4.602892e-01 4.189110e-01 2.716476e-01 3.365966e-01 6.768866e-05
<GCONST> 7.847545e+01
<STATE> 10
<NUMMIXES> 9
<MIXTURE> 1 3.527144e-02
<MEAN> 39
 -3.262366e+00 1.280945e+01 -6.215842e+00 -1.232949e+01 -1.153902e+00 -8.822323e+00 8.440684e+00 6.698989e+00 6.372395e+00 3.507519e+00 -2.935713e+00 -4.732388e+00 8.142883e-01 3.796635e-01 -2.848183e+00 8.580686e-01 -2.527658e+00 2.614866e+00 3.318045e+00 2.851990e+00 3.124135e+00 6.381664e-01 -1.643122e-01 1.187813e+00 -8.359715e-01 -3.470804e-02 1.412126e-01 -6.039961e-01 3.819088e-01 8.437638e-01 4.966294e-02 1.609808e+00 -5.082494e-01 -6.997916e-01 -1.004245e+00 -9.420029e-01 2.414018e-01 1.073158e+00 -1.079492e-02
<VARIANCE> 39
 5.766033e+00 3.566150e+01 1.109936e+01 1.422565e+01 2.441101e+01 1.012817e+01 4.602554e+01 1.338558e+01 5.372569e+01 4.924389e+01 9.118284e+00 4.599075e+01 3.490044e-03 8.533595e-01 2.088090e+00 2.416522e+00 1.300069e+00 2.624583e+00 2.643136e+00 3.549212e+00 3.788116e+00 4.418460e+00 6.383618e+00 3.447423e+00 2.702705e+00 1.850572e-04 1.885585e-01 6.386000e-01 2.297942e-01 4.311864e-01 8.144343e-01 9.120616e-02 6.882315e-01 6.629839e-01 1.168597e+00 9.471505e-01 6.902895e-01 6.700404e-01 9.441635e-05
<GCONST> 8.774446e+01
<MIXTURE> 2 1.579483e-01
<MEAN> 39
 2.349074e+00 1.016155e+01 -2.359279e-01 -6.591876e-01 -2.842164e+00 -4.620412e+00 -4.703095e+00 -1.587853e+00 -1.194603e+00 -1.717433e+00 2.970067e-01 -1.063619e+00 7.913042e-01 7.029098e-01 -3.028440e-01 9.792271e-01 7.766896e-01 9.382657e-01 8.733712e-01 7.790220e-01 -4.821231e-02 8.725971e-02 3.763807e-01 5.674540e-02 -3.292842e-02 -3.426820e-02 -2.434855e-01 -9.363508e-02 1.596986e-01 3.767773e-01 2.034521e-01 2.979617e-01 1.377318e-01 2.256180e-02 -7.832370e-03 3.826640e-02 -3.854567e-02 6.188446e-02 -1.069409e-02
<VARIANCE> 39
 1.965663e+01 4.019560e+01 1.979471e+01 2.154669e+01 1.933864e+01 2.734763e+01 3.165083e+01 2.905069e+01 2.932154e+01 2.993461e+01 3.172446e+01 2.638491e+01 7.494419e-03 9.006238e-01 8.105812e-01 1.871617e+00 1.264653e+00 1.635391e+00 1.466789e+00 2.933571e+00 2.241136e+00 1.959593e+00 2.136176e+00 2.842813e+00 2.212576e+00 3.420704e-04 1.124578e-01 1.710017e-01 1.962758e-01 2.115423e-01 2.361910e-01 3.544761e-01 3.475206e-01 3.534100e-01 3.599583e-01 3.468869e-01 3.123744e-01 3.193999e-01 7.178820e-05
<GCONST> 7.907118e+01
<MIXTURE> 3 1.573986e-01
<MEAN> 39
 2.249738e+00 1.025200e+01 -1.256888e-01 -7.325776e-01 -2.845058e+00 -4.572442e+00 -4.760886e+00 -1.533401e+00 -1.143714e+00 -1.790394e+00 3.872093e-01 -1.174590e+00 7.916313e-01 7.102919e-01 -3.107937e-01 9.673989e-01 7.803981e-01 9.500136e-01 8.824898e-01 8.085213e-01 -4.062039e-02 8.413771e-02 3.796491e-01 2.747252e-02 -2.482738e-02 -3.452854e-02 -2.392587e-01 -9.819748e-02 1.508273e-01 3.837610e-01 2.039420e-01 2.975557e-01 1.385228e-01 1.920134e-02 -1.595495e-02 4.209857e-02 -3.980243e-02 6.659650e-02 -1.070563e-02
<VARIANCE> 39
 1.946344e+01 3.982217e+01 1.983726e+01 2.145201e+01 1.935880e+01 2.709723e+01 3.154212e+01 2.841689e+01 2.920882e+01 3.006688e+01 3.150590e+01 2.630706e+01 7.404076e-03 8.977864e-01 8.063560e-01 1.844888e+00 1.260563e+00 1.643287e+00 1.470198e+00 2.933840e+00 2.217374e+00 1.959373e+00 2.132759e+00 2.799364e+00 2.197060e+00 3.378613e-04 1.118202e-01 1.715101e-01 1.949777e-01 2.114373e-01 2.380656e-01 3.524615e-01 3.464239e-01 3.496051e-01 3.580769e-01 3.500346e-01 3.099101e-01 3.213130e-01 7.189303e-05
<GCONST> 7.891035e+01
<MIXTURE> 4 1.042149e-01
<MEAN> 39
 -9.255773e-01 1.354754e+01 3.429980e+00 -1.074905e+01 -1.042201e+00 -7.956897e+00 -6.484213e+00 1.508409e+00 1.260426e+00 -2.290599e+00 1.794414e+00 -3.267056e+00 8.427954e-01 1.086284e+00 -1.475979e+00 1.961684e+00 5.620912e-01 8.592856e-01 2.063025e+00 9.499008e-01 7.921122e-01 7.328235e-01 1.290261e-01 -5.018278e-01 4.240894e-01 -3.767387e-02 -1.417727e-01 3.226680e-03 -1.811327e-01 1.393421e+00 2.456757e-02 7.294221e-01 1.348520e-01 6.330428e-02 -2.731320e-01 -1.628003e-01 7.903842e-02 1.003815e-01 -1.860091e-02
<VARIANCE> 39
 7.516776e+00 2.608797e+01 1.928733e+01 1.614984e+01 1.317976e+01 1.908296e+01 2.398143e+01 2.302044e+01 2.573364e+01 2.521195e+01 1.954539e+01 2.091559e+01 3.693514e-03 7.614325e-01 1.437322e+00 1.645207e+00 2.404305e+00 1.815464e+00 1.504186e+00 2.162657e+00 1.923959e+00 2.569555e+00 1.848235e+00 2.900558e+00 2.385605e+00 2.285284e-04 1.885755e-01 2.685629e-01 2.078987e-01 2.543248e-01 3.055632e-01 2.932965e-01 3.956744e-01 3.547460e-01 3.195079e-01 4.556131e-01 3.665590e-01 2.949492e-01 9.284974e-05
<GCONST> 7.669502e+01
<MIXTURE> 5 1.578695e-01
<MEAN> 39
 2.399046e+00 1.019685e+01 -2.345473e-01 -6.514546e-01 -2.915295e+00 -4.764123e+00 -4.789480e+00 -1.764254e+00 -1.308047e+00 -1.801076e+00 2.089679e-01 -9.807994e-01 7.921596e-01 6.882198e-01 -3.000376e-01 1.020661e+00 7.791641e-01 9.351643e-01 8.714575e-01 7.525823e-01 -6.609955e-02 8.478008e-02 3.722656e-01 7.560869e-02 -3.589775e-02 -3.462282e-02 -2.464576e-01 -9.589138e-02 1.620695e-01 3.784952e-01 2.077706e-01 3.134261e-01 1.502948e-01 3.716143e-02 2.340124e-03 4.541149e-02 -3.592618e-02 5.843285e-02 -1.099228e-02
<VARIANCE> 39
 2.006883e+01 3.909385e+01 1.985774e+01 2.142903e+01 1.938391e+01 2.687986e+01 3.165475e+01 3.020666e+01 2.997320e+01 2.992786e+01 3.195955e+01 2.678937e+01 7.235589e-03 9.069354e-01 8.165624e-01 1.856574e+00 1.266052e+00 1.629062e+00 1.473856e+00 2.956330e+00 2.264230e+00 1.938988e+00 2.138983e+00 2.829985e+00 2.250140e+00 3.127101e-04 1.132437e-01 1.701526e-01 1.982058e-01 2.146421e-01 2.376107e-01 3.535223e-01 3.572407e-01 3.627043e-01 3.718177e-01 3.478460e-01 3.147160e-01 3.223777e-01 7.132311e-05
<GCONST> 7.916347e+01
<MIXTURE> 6 7.114358e-02
<MEAN> 39
 -8.084365e-01 1.242372e+01 2.208126e+00 -1.054240e+01 -7.337666e-01 -8.205671e+00 -5.095783e+00 1.541894e+00 3.344001e-01 -2.207167e+00 7.271848e-01 -3.882202e+00 8.455652e-01 1.091485e+00 -1.169292e+00 2.140678e+00 6.157005e-01 1.119069e+00 2.049680e+00 6.594388e-01 7.419266e-01 6.134402e-01 -2.438268e-02 -1.488750e-01 3.205170e-01 -3.657341e-02 -1.046769e-01 2.455259e-02 -8.392925e-02 1.304222e+00 -4.720600e-02 7.024153e-01 -2.202518e-02 -1.950853e-02 -1.921152e-01 -5.299776e-02 5.189601e-02 2.357172e-01 -1.601693e-02
<VARIANCE> 39
 8.059989e+00 2.793609e+01 2.127128e+01 1.708199e+01 1.510239e+01 2.035920e+01 2.813248e+01 2.526719e+01 2.606630e+01 2.581234e+01 2.162586e+01 2.288597e+01 3.831917e-03 9.233564e-01 1.264508e+00 1.913047e+00 2.221297e+00 2.027691e+00 1.750598e+00 2.646439e+00 2.156819e+00 2.618736e+00 2.075867e+00 3.363071e+00 2.649010e+00 2.622004e-04 1.766073e-01 2.229389e-01 2.484251e-01 3.020735e-01 3.344334e-01 2.903813e-01 4.268313e-01 3.624614e-01 3.620348e-01 4.424917e-01 3.723148e-01 3.441722e-01 1.055807e-04
<GCONST> 7.961543e+01
<MIXTURE> 7 7.795674e-02
<MEAN> 39
 -9.234097e-01 8.323557e+00 -1.777215e+00 -8.261636e+00 7.707653e-01 -7.669389e+00 -1.689496e+00 6.493906e-01 -1.503122e+00 -1.743601e+00 -4.323610e+00 -4.677559e+00 8.345616e-01 1.052508e+00 -1.118438e+00 2.309174e+00 -3.271660e-01 1.093123e+00 1.632368e+00 -9.893520e-01 3.705108e-01 -1.654000e-01 -7.074222e-01 6.069388e-01 -4.471034e-01 -2.145502e-02 1.808321e-01 1.287538e-01 1.858346e-01 8.045051e-01 -4.883808e-01 5.184801e-01 -2.983273e-01 -2.829985e-01 1.649568e-01 -6.882899e-02 1.941842e-01 4.430502e-01 -3.708988e-03
<VARIANCE> 39
 1.522462e+01 4.624190e+01 1.849378e+01 2.659786e+01 3.697807e+01 2.709487e+01 2.526797e+01 1.804124e+01 1.924875e+01 2.560784e+01 3.819883e+01 2.239841e+01 7.099202e-03 8.323996e-01 1.275649e+00 2.187992e+00 2.216632e+00 3.633543e+00 2.352054e+00 3.842933e+00 1.709529e+00 2.669010e+00 4.162136e+00 2.610777e+00 3.741018e+00 2.988564e-04 7.824291e-02 1.224977e-01 2.374443e-01 3.106326e-01 3.390303e-01 3.665842e-01 4.851085e-01 4.242582e-01 3.011093e-01 4.806728e-01 3.859419e-01 4.796492e-01 5.467216e-05
<GCONST> 8.335232e+01
<MIXTURE> 8 1.164879e-01
<MEAN> 39
 -4.798951e+00 9.082533e+00 7.856318e-01 -1.151990e+01 -1.751902e-02 -9.570922e+00 -3.552267e+00 6.289061e-01 8.162133e-01 3.427001e-01 5.118091e-01 1.273299e+00 9.034590e-01 3.699561e-01 -3.094099e+00 1.620897e+00 -2.281945e+00 -2.471875e-01 1.868571e+00 1.859458e-01 1.538518e+00 -3.504738e-01 5.073138e-01 -8.810944e-01 3.188426e-02 -2.121936e-03 4.842184e-01 -6.092810e-01 -1.167251e-01 1.110749e+00 -1.037403e+00 8.413897e-01 1.496059e-01 -2.762796e-01 -1.371541e-01 -2.467993e-01 -1.866535e-01 -1.640149e-01 -2.478823e-03
<VARIANCE> 39
 1.420327e+01 1.893732e+01 2.244628e+01 1.571479e+01 2.291303e+01 3.920102e+01 3.782099e+01 3.217289e+01 2.807616e+01 2.803117e+01 3.787547e+01 4.819413e+01 4.426572e-03 5.042932e-01 7.769284e-01 2.286714e+00 7.032748e-01 1.470068e+00 2.500213e+00 3.434013e+00 1.891901e+00 2.840834e+00 1.993679e+00 2.955801e+00 2.455545e+00 1.325830e-04 1.213771e-01 1.333348e-01 1.659431e-01 3.168307e-01 3.648941e-01 3.391500e-01 3.568525e-01 5.397872e-01 4.114208e-01 3.718115e-01 4.711632e-01 3.045500e-01 8.955746e-06
<GCONST> 7.705066e+01
<MIXTURE> 9 1.217089e-01
<MEAN> 39
 1.843099e-01 9.848791e+00 -3.743720e+00 -5.964210e+00 -3.252518e+00 -8.940702e+00 -1.374129e-01 -1.163814e+00 1.514737e-01 4.617834e+00 3.383735e+00 5.890416e+00 8.650002e-01 1.245024e+00 -7.328863e-01 1.944043e+00 4.923317e-01 1.197512e+00 7.714365e-01 -2.571202e-01 4.480451e-01 -1.185695e+00 -9.516886e-01 -1.639196e+00 -2.489808e+00 -5.009381e-02 -1.539221e-01 -9.617569e-02 3.084339e-01 9.956125e-01 2.514732e-01 8.827407e-01 1.087507e-01 4.536363e-02 6.742190e-02 -6.365460e-02 8.602587e-02 5.735928e-02 -2.298567e-02
<VARIANCE> 39
